34 128
34 -0.002700 -0.003571 0.002525 0.003365 0.003708 -0.002748 0.004486 -0.000519 -0.002140 0.000171 -0.004216 0.001103 0.001616 -0.001893 -0.002627 -0.003122 0.003438 0.000024 0.002772 0.003290 0.001551 -0.000770 0.005241 -0.002430 0.000609 -0.003969 0.002057 -0.001716 -0.001169 0.003386 0.003542 0.001671 -0.003123 0.001415 0.000571 0.001891 0.005035 0.002232 0.000475 0.001098 -0.003615 0.003833 0.003770 0.002729 -0.002278 -0.002399 0.002461 -0.003420 0.002289 0.003107 0.000935 0.002378 0.002421 0.003380 -0.003377 -0.004236 -0.000482 0.000479 -0.000429 -0.001086 -0.000631 0.001065 -0.004095 0.001866 0.000273 -0.002742 -0.002245 -0.003639 0.003415 -0.000440 -0.001748 -0.000219 -0.003298 0.002316 0.000696 -0.000709 -0.002714 0.004207 0.000874 0.002021 -0.003885 -0.002868 0.001086 -0.003417 0.001576 0.003770 -0.000397 0.000922 -0.002740 0.001962 -0.002271 0.000735 0.000360 -0.000534 -0.002185 0.003288 -0.002170 0.002492 -0.000752 -0.001073 -0.002872 0.003990 -0.001607 -0.003306 -0.003769 0.000596 0.003947 -0.000167 -0.001529 0.000981 0.001925 0.000247 0.000239 0.003176 -0.001151 -0.001345 0.000915 0.004574 -0.002017 0.003740 -0.000989 -0.001756 0.002056 -0.001022 -0.003765 0.003212 0.002189 0.001613
1 -0.004431 -0.005479 0.003602 -0.002344 0.001899 -0.004727 0.000142 0.003358 0.003938 0.000298 -0.002546 0.000546 0.002780 -0.003003 -0.002107 -0.003989 0.001908 -0.002653 0.003726 -0.001469 0.002953 -0.000427 0.002035 0.001577 0.001147 0.000732 0.001908 0.003236 0.001629 -0.001162 -0.003920 0.002799 -0.000818 0.001075 -0.002574 -0.004114 -0.002569 -0.001134 0.003342 -0.004648 -0.004230 -0.002575 0.003359 0.003356 -0.002503 -0.002037 -0.002340 -0.000351 0.003774 0.003056 -0.004106 0.004751 -0.000998 0.004326 -0.004279 0.000276 -0.000733 0.003512 -0.003101 0.001743 0.002940 -0.004933 -0.003008 0.001091 -0.003005 0.000515 0.000393 0.001952 -0.003868 -0.000801 -0.000239 -0.003378 0.003763 -0.000571 -0.001774 -0.002426 0.003287 -0.002048 0.001928 -0.003660 -0.002280 -0.004254 -0.000096 -0.004147 -0.002602 -0.002738 -0.001208 -0.000820 0.002898 0.000839 0.001618 0.000579 0.001668 -0.000266 -0.001586 0.000111 -0.001034 -0.003266 0.003961 0.001733 -0.004023 0.003067 0.001065 -0.001321 0.002079 0.004005 0.004051 0.002993 -0.002388 0.000337 -0.001271 -0.002124 0.001156 0.003137 -0.002590 -0.001902 0.002604 0.002964 -0.004004 -0.001685 -0.000882 0.001652 -0.002898 -0.001229 -0.002160 -0.000428 -0.000814 0.001711
33 -0.000912 -0.004222 0.000872 0.003679 0.003242 -0.004396 0.000058 0.004125 0.002642 -0.000160 0.001576 0.001089 0.000862 -0.004207 0.002950 0.000247 -0.001370 0.001708 -0.003103 0.000078 0.004578 -0.000187 0.004107 -0.002733 -0.002252 -0.000570 -0.002640 0.000076 0.002048 0.002618 -0.000848 0.003899 -0.000829 0.003805 -0.004365 -0.003727 0.000780 0.000554 -0.003613 0.002600 -0.003001 0.002089 0.002781 -0.001248 -0.002649 0.002565 -0.000977 -0.003566 -0.002956 -0.000261 -0.001984 0.004793 0.002698 -0.001372 -0.004973 0.000724 -0.002726 0.001184 0.002482 0.002485 0.004848 -0.005150 -0.002622 0.002945 0.002772 -0.003563 0.003414 -0.002064 0.001370 0.001740 0.003187 -0.000429 0.001396 0.001421 -0.001630 0.002295 0.001807 -0.000040 0.001083 -0.000449 0.003010 -0.002995 -0.001844 -0.003817 -0.000426 0.003516 -0.001182 -0.000576 0.000024 0.001112 0.004136 0.003040 0.000735 -0.001826 0.002130 0.004435 -0.003281 -0.003588 0.004161 -0.001066 -0.004375 -0.002223 -0.002842 0.003379 0.001368 -0.002604 0.002668 0.001701 0.001633 -0.002526 -0.001097 0.000382 0.000978 -0.003176 0.001055 0.000747 -0.000363 -0.002038 -0.004031 -0.003079 0.001262 -0.001022 0.002871 -0.000563 0.000575 -0.000852 -0.002559 -0.001641
2 0.002730 -0.001414 -0.000766 -0.000913 -0.000966 -0.000235 0.001983 0.002574 -0.003100 -0.000460 -0.001297 0.002724 0.002270 -0.003150 -0.000682 -0.003812 -0.002195 0.001550 -0.000564 -0.000060 0.001481 0.000922 0.003429 -0.000208 -0.002762 -0.000912 -0.002005 0.000326 0.002590 0.001912 0.002684 -0.001290 -0.003521 0.003383 -0.003652 0.001724 0.001179 -0.002572 0.001453 -0.001466 0.001016 0.002737 0.002155 -0.000082 -0.003008 -0.000452 -0.002065 -0.001506 0.001557 -0.002016 0.000321 -0.002564 0.001905 0.003984 -0.004286 -0.000415 0.002183 0.003347 -0.002463 0.003529 -0.001783 0.001434 -0.000584 -0.002302 -0.001263 0.002909 -0.001102 -0.001461 -0.003656 -0.002047 -0.001192 -0.000597 0.003245 -0.000802 -0.001013 0.002510 0.001625 -0.001536 0.000807 -0.001179 -0.002392 -0.002553 -0.003489 -0.000045 0.002037 0.003364 -0.000632 -0.000526 0.003362 -0.002523 0.002402 0.002978 0.000591 -0.003845 -0.004256 0.001491 -0.001872 -0.002189 -0.001980 0.003061 0.001812 -0.002027 0.001068 -0.003972 -0.000481 -0.003007 0.004536 0.004007 -0.003168 0.000296 -0.002691 0.001605 0.001711 -0.001737 -0.003235 -0.000771 0.000918 0.002130 -0.003294 -0.001135 -0.001444 -0.002205 0.001446 -0.004373 0.001103 0.001933 0.003891 0.000777
3 -0.003946 -0.000586 0.003604 0.000881 0.001438 -0.000992 0.002691 0.000458 -0.003256 -0.001390 0.001456 -0.001957 -0.003374 -0.004825 -0.001819 -0.004041 0.003470 -0.003451 -0.000664 -0.001863 -0.001974 0.001549 0.000160 0.003875 0.003873 -0.001821 -0.000350 0.002619 0.004066 0.004241 -0.002252 -0.001936 -0.003888 0.003928 -0.001598 -0.003828 0.002081 0.002776 0.001138 0.001614 -0.000481 -0.003558 0.001691 0.004195 -0.002696 -0.000200 0.002604 -0.003245 -0.003768 0.002725 0.002762 -0.000457 -0.003360 0.001556 -0.003320 -0.002877 -0.002253 0.001078 -0.002229 0.003678 -0.002717 0.000901 -0.001291 0.004357 0.000085 -0.002904 0.003207 0.002564 0.000862 -0.003551 0.002325 0.000928 -0.002124 0.002208 0.002232 -0.001655 0.004062 -0.000698 0.003469 -0.000920 -0.001024 0.001859 -0.001527 -0.002987 0.000754 0.002141 -0.000195 0.000941 -0.002409 -0.000863 -0.000889 0.002047 -0.000283 0.000422 -0.004112 0.003478 -0.004062 0.002737 0.004099 0.000526 -0.004689 0.001273 -0.004244 -0.001358 0.001609 0.004272 0.000643 0.000261 0.002294 -0.002553 0.002554 -0.000243 0.000818 0.000470 0.000299 0.001842 -0.001136 0.003074 0.002383 0.000478 -0.002228 -0.004022 -0.001153 -0.002030 -0.003252 0.001036 0.001292 0.002305
4 -0.000359 0.002924 0.000069 0.001771 0.002446 -0.003015 -0.003096 0.004145 0.000904 -0.002166 0.003328 0.001552 0.002958 -0.001685 -0.001077 -0.001691 0.000678 -0.002854 0.001165 0.002597 0.002033 -0.000816 -0.001775 -0.001355 0.002036 0.000767 -0.002749 0.001973 0.003372 -0.001185 -0.002055 -0.002338 -0.000824 -0.000263 -0.002110 -0.001606 0.002951 0.002500 0.001407 0.001597 0.000565 -0.003102 0.003656 0.004002 0.001118 -0.002926 -0.000980 -0.003489 -0.002473 -0.002457 0.002419 -0.002493 0.001056 0.001717 -0.002495 0.001176 0.001713 0.000572 0.001454 -0.001579 0.004249 -0.002623 0.001461 0.000800 0.002450 0.003443 -0.003988 0.001817 -0.000294 -0.001856 0.000395 0.001326 0.002807 -0.003753 0.002432 -0.001181 0.003790 0.002299 -0.001708 0.002999 0.000920 -0.004359 -0.000969 0.000581 0.001704 -0.000491 0.003874 -0.002272 0.002886 0.001277 -0.002385 -0.000678 -0.003066 -0.001492 -0.001714 0.001951 -0.003562 -0.002253 0.000752 -0.000089 -0.003279 0.001215 0.003328 0.003079 -0.003236 0.002084 -0.001806 0.001922 -0.001924 -0.001416 0.003211 -0.001202 0.000391 0.000986 -0.000427 0.002689 -0.000309 0.001900 -0.001120 -0.000046 0.001767 0.000675 -0.003471 -0.004659 -0.004019 0.001166 0.003638 0.002848
32 -0.002183 -0.003898 -0.003691 0.000448 0.000476 -0.000172 0.002904 -0.000437 -0.001477 0.000863 -0.001239 0.002665 -0.001078 0.000313 0.000215 0.001294 0.001013 -0.001795 -0.003612 0.000619 0.000750 0.002765 -0.002295 -0.001865 -0.002872 -0.001280 -0.001922 0.003580 0.001499 -0.001630 -0.001258 -0.000133 0.003394 0.002528 -0.002712 -0.000255 0.003652 0.003818 -0.000793 -0.002824 -0.003601 0.001648 0.000029 0.000052 -0.003828 -0.000920 0.002896 0.001175 -0.000505 -0.003263 -0.000832 0.002041 -0.001029 0.002171 -0.003579 -0.002870 -0.001799 -0.000219 -0.000361 -0.000956 0.001598 -0.000317 -0.003111 0.004008 -0.003422 -0.001255 -0.002744 0.002655 0.000469 -0.004028 -0.003302 0.003048 0.001213 -0.001785 -0.001788 0.002429 0.001283 0.000822 -0.000440 -0.000161 -0.001437 -0.002250 0.002799 -0.000326 -0.000546 0.003872 0.001713 0.000679 0.001255 -0.002574 0.001608 0.002666 0.002569 -0.002605 0.000925 0.000497 -0.000086 -0.001233 -0.003097 -0.003490 0.000890 -0.002346 -0.003799 -0.002467 0.002298 0.004121 0.003893 -0.001892 -0.003884 0.001359 0.000645 -0.002382 0.002224 0.002798 0.002420 0.002226 -0.000720 0.003849 0.002727 -0.001360 -0.001668 -0.004088 -0.000097 0.000899 0.002514 -0.003218 -0.003552 0.003287
14 -0.001829 -0.002977 0.003817 -0.002976 0.002133 0.000987 -0.001865 -0.001163 -0.001949 0.002079 -0.003947 0.002125 -0.001200 -0.000819 0.000068 0.000653 0.002017 -0.000380 0.000879 -0.002139 0.003170 0.003852 0.000376 0.002307 -0.001191 0.001827 0.002765 0.003809 -0.003495 0.003329 0.001842 0.001332 -0.001571 0.003070 0.002189 -0.001705 -0.000996 0.000162 -0.001261 -0.000496 -0.003870 0.000400 0.002054 0.002778 -0.000694 0.001311 0.001058 0.002031 0.000081 0.003704 -0.001772 0.000369 -0.000954 0.002412 -0.000218 -0.001701 -0.003328 0.003701 -0.002864 -0.001987 0.000053 -0.003361 0.002320 -0.002957 -0.002917 0.002194 0.002060 -0.002579 -0.000634 -0.002297 -0.002872 0.002735 -0.002863 0.003513 0.003358 0.001767 0.001599 -0.000541 -0.000652 -0.003354 -0.002190 0.000109 0.002306 0.003186 -0.003223 0.003590 -0.001482 -0.001456 0.002175 -0.000883 -0.000612 -0.000844 0.000510 -0.001106 -0.002391 0.004253 -0.002870 0.003142 0.003317 0.000859 -0.003574 0.000269 -0.000877 0.001925 -0.003302 0.002525 0.004099 0.003916 -0.003928 -0.001164 -0.003514 -0.003013 -0.002215 0.001571 0.003099 -0.001216 -0.002704 -0.000463 -0.001581 0.001432 -0.000141 -0.002377 -0.000474 -0.003699 0.001602 -0.001251 -0.002068 0.000481
24 0.001846 0.000400 0.003030 0.003920 0.001247 -0.001375 0.000333 0.001054 0.001496 0.001573 0.003170 0.000520 0.003102 -0.003991 -0.000473 -0.002901 -0.001494 -0.001349 0.001008 -0.000621 0.001719 0.001064 0.001107 0.003423 0.001422 0.002818 -0.001213 -0.002492 -0.000529 0.003046 -0.003556 0.000872 -0.003980 -0.001014 0.000640 -0.001640 0.004779 -0.001682 -0.000315 -0.002884 0.000019 0.003795 0.000428 0.002611 -0.001362 0.002051 -0.002594 0.002572 0.001137 -0.002368 0.003177 0.001953 -0.003000 0.003832 0.002491 0.002866 0.002631 0.000471 -0.001295 -0.001542 0.000446 -0.001321 0.001019 0.001063 -0.003080 -0.002599 -0.001426 0.001926 -0.001521 0.001691 0.001155 0.002269 -0.003119 0.000161 0.000748 -0.000459 -0.002878 -0.002474 -0.000706 0.003596 0.002755 0.001797 0.000465 0.001846 -0.002089 -0.002332 -0.002426 0.003663 0.002035 0.001355 -0.000794 0.001144 0.001920 -0.001660 0.001292 0.004406 0.001998 0.000879 -0.000545 -0.001266 -0.003456 0.003822 0.002081 0.001857 -0.002018 0.003124 0.001611 0.001436 -0.000124 0.001613 0.003586 -0.002374 0.000247 0.000432 -0.004048 -0.001093 -0.001334 -0.000802 0.001744 0.003016 0.000594 -0.003730 0.000866 -0.002989 0.002915 0.002057 0.000415 0.003263
6 0.000809 -0.001825 0.000822 0.003692 0.000521 0.000754 0.002300 0.002706 -0.000107 0.000441 0.001202 -0.000141 -0.000919 -0.002520 0.002105 -0.000811 -0.001234 -0.003155 0.001869 -0.002319 -0.000603 -0.002440 -0.000480 -0.003128 0.003030 -0.002243 0.001028 -0.003728 0.000484 0.003759 0.000438 -0.002730 0.001838 -0.000560 0.000810 -0.000392 0.001353 0.003530 -0.003620 -0.004287 -0.002505 0.002180 0.003946 -0.001881 -0.004174 0.001577 0.002376 -0.003925 0.003705 0.003010 -0.000738 0.002782 -0.003269 0.000506 0.002415 -0.002281 -0.000375 -0.001846 0.002308 -0.003474 0.004324 0.001702 0.000117 0.000712 0.000271 -0.003381 -0.003112 0.000420 -0.002717 -0.003137 0.001929 -0.000559 -0.002159 0.003313 0.002716 -0.000527 0.002100 0.003717 -0.001012 0.001145 -0.003719 0.002393 0.001866 0.000683 0.003217 -0.003543 0.003048 -0.001584 -0.001037 0.000187 0.003096 0.001322 0.002416 0.002372 -0.000482 0.001498 0.000920 -0.004194 0.002961 -0.001686 0.001993 -0.001481 -0.000338 0.000177 -0.002491 0.003002 -0.000248 0.004055 0.001815 -0.001571 0.002793 0.001722 -0.000628 0.001895 0.000377 0.003430 0.001461 -0.001728 -0.000228 -0.000641 0.000562 -0.002259 0.002701 -0.004736 -0.003810 0.001311 0.003873 -0.003258
28 -0.003735 -0.003881 0.004001 0.000508 0.000158 0.002431 0.001099 -0.000746 -0.002371 -0.000250 0.001280 0.003560 0.000010 0.001642 -0.002461 -0.001666 -0.000949 -0.002755 0.002285 0.002131 -0.002457 -0.000185 0.000582 -0.000842 -0.001740 0.002441 -0.003614 0.001248 0.003515 0.000233 -0.000908 0.003506 0.001592 0.003579 -0.000155 -0.004046 0.003225 0.001918 0.001483 0.000399 -0.002503 -0.002743 0.002830 0.003592 -0.004030 -0.002014 -0.003722 -0.001371 -0.003380 -0.002351 -0.004304 0.001542 0.002424 -0.002259 0.002659 -0.000823 -0.003253 -0.002965 -0.004056 0.000379 0.000557 -0.002981 0.002518 0.003000 0.000904 -0.001453 -0.001311 0.003392 -0.003296 -0.004447 -0.001641 0.003247 -0.002935 -0.003630 -0.000396 0.001025 -0.000265 0.003266 -0.003662 0.002993 -0.000486 -0.004469 0.001530 -0.000062 -0.001202 0.004220 0.000805 0.002697 0.000325 0.001461 0.001802 0.000336 -0.001541 -0.003364 0.002192 -0.000603 -0.000784 0.001922 0.000322 -0.002761 -0.003586 0.003863 -0.004297 -0.001859 0.002011 0.003947 0.004472 0.004161 0.000531 -0.003967 0.001581 0.000984 -0.002664 -0.000836 0.000568 -0.002362 -0.003051 -0.000265 -0.001847 -0.001805 0.000028 -0.001972 0.000487 0.001558 -0.003506 -0.003127 0.001123 0.002623
7 0.003239 -0.000660 -0.003469 -0.000734 -0.002951 0.001952 0.001198 0.001387 0.004079 -0.000788 -0.001875 0.001384 0.001223 -0.004693 0.002699 -0.000321 0.000643 -0.000908 -0.002732 -0.000451 0.001859 -0.001888 0.001171 0.003090 0.003401 -0.002900 -0.003905 -0.002119 -0.002264 -0.000936 0.002486 0.003566 -0.002781 -0.003195 -0.002998 -0.001034 -0.001536 -0.003271 -0.001424 -0.002643 -0.004595 0.001321 0.001814 0.002969 -0.000659 0.002432 0.001327 -0.000434 0.003079 0.000713 -0.002999 0.003691 0.000216 0.003654 -0.003261 0.001831 0.000273 -0.002444 0.002547 0.003636 0.002034 -0.000485 0.000805 0.002635 -0.001281 0.001222 0.001123 0.003844 0.000253 -0.003320 -0.001624 0.002771 -0.002905 0.001193 0.001629 0.001049 -0.000562 0.002045 0.000096 -0.002741 0.000125 0.002637 -0.001149 0.002926 -0.001876 -0.002571 -0.002911 0.000666 -0.001911 0.002357 0.004205 -0.000135 0.003661 -0.000882 -0.001372 0.003227 0.002470 -0.003925 -0.002278 0.000821 -0.002627 0.001480 -0.004214 -0.001163 -0.001129 -0.002917 -0.002395 0.000820 0.002996 0.000299 0.001515 0.003600 -0.001528 -0.003197 -0.002851 -0.000593 -0.000947 -0.001589 -0.003797 0.003655 -0.002087 0.002918 0.003203 0.000065 -0.002984 -0.001904 0.003407 0.003794
30 0.002857 -0.004279 -0.003208 0.003959 -0.003571 0.000787 0.003238 -0.001440 -0.000041 0.001822 -0.004018 0.000586 -0.000948 -0.002521 -0.001865 -0.003520 0.000945 -0.000968 -0.003740 0.003843 0.001797 -0.002045 0.004496 -0.003676 0.001570 -0.002334 0.002577 -0.000331 -0.003235 0.002410 -0.000705 -0.002230 0.000716 -0.001660 -0.002772 0.002458 0.001009 0.003143 0.000932 -0.003792 -0.000664 0.001599 0.001674 0.003967 -0.000343 0.001032 0.000144 -0.003445 -0.000600 0.001555 -0.000938 0.003186 0.002236 -0.003528 0.001694 0.000847 -0.004083 0.001229 0.001944 0.000508 0.001522 -0.003788 0.003064 0.001457 0.003613 -0.002368 -0.002294 -0.001336 0.001647 -0.003041 0.001411 0.000513 0.000181 -0.000375 0.000857 -0.002187 0.000513 0.003503 -0.000018 0.003162 -0.004316 -0.002586 -0.003774 -0.001473 0.000188 0.003245 -0.002886 0.001342 -0.002145 0.001123 0.003540 -0.003351 0.001084 0.002006 0.002878 0.001811 -0.002890 0.002835 0.001196 -0.002085 0.002913 0.001135 -0.002521 -0.004034 -0.001266 -0.000703 0.002614 0.001661 -0.004128 -0.001032 -0.002204 -0.003972 -0.002425 -0.002625 0.002943 -0.001751 -0.003298 -0.000394 -0.001920 0.003866 -0.003254 0.000915 0.000459 0.000945 0.002234 0.002363 0.003896 0.001230
8 0.000229 -0.004529 0.002097 0.000995 -0.002384 0.000831 0.002477 0.001067 0.000115 0.002908 -0.001965 0.000682 -0.002216 -0.000768 0.002980 -0.003452 0.001998 -0.000345 0.003654 0.002633 -0.000298 -0.000102 0.000118 -0.003406 0.001239 0.003699 -0.000458 0.002683 -0.001664 0.002856 -0.001151 0.000789 0.000577 0.002594 -0.001784 -0.001836 0.004030 -0.000649 0.003187 0.003149 -0.002024 0.000336 -0.002256 0.003428 0.000399 0.003214 -0.002521 -0.000997 -0.001548 0.002160 -0.002566 -0.001474 0.004138 0.002678 -0.003636 -0.000290 -0.003856 -0.001218 -0.002240 -0.002207 -0.001653 -0.003965 0.000615 0.001844 0.001789 -0.003131 0.002982 -0.001440 -0.000456 -0.003360 -0.002938 -0.001520 -0.001938 -0.000280 -0.000283 0.001185 -0.002078 -0.000705 -0.000645 -0.000443 0.001861 -0.004001 -0.002604 0.001035 -0.003797 0.004217 0.002681 0.000716 0.001098 -0.002747 0.002445 -0.002266 0.000029 -0.000364 -0.001737 -0.002100 -0.001655 -0.003871 -0.002011 -0.002994 0.002009 -0.003127 -0.004533 -0.001565 0.002986 -0.002829 0.002802 -0.003400 -0.002086 -0.002616 -0.003861 0.001756 0.002034 -0.000466 -0.004155 0.003180 -0.001786 -0.000462 -0.002680 -0.000067 -0.002385 -0.003656 0.003304 -0.000223 0.001611 -0.003351 0.002605 -0.001969
11 -0.003522 -0.003468 0.001458 0.001416 0.002121 -0.002135 -0.002401 0.003636 0.003020 -0.003174 -0.000772 0.001433 -0.001811 0.001618 0.003610 -0.004173 -0.001654 -0.001220 0.000535 -0.002947 0.003279 -0.001077 0.003032 0.000646 -0.000961 -0.002282 -0.001980 0.000209 -0.002481 -0.002382 0.001908 -0.000297 0.002026 -0.003501 0.001570 0.002922 0.004177 0.002755 0.000014 0.003163 0.001734 0.002818 0.004029 0.000226 -0.001959 0.002563 0.002968 0.002376 -0.001339 0.001729 0.001083 0.001547 0.000195 0.000164 -0.000682 -0.003038 0.000666 0.002576 -0.004022 0.001142 0.000333 -0.002929 0.003688 0.003294 -0.003112 0.000933 -0.003983 -0.000674 0.002385 -0.003821 0.000295 -0.000334 -0.002692 -0.001451 0.004038 0.001186 0.001332 -0.002597 -0.002701 -0.001347 0.001091 0.003026 -0.000977 -0.001790 -0.003864 -0.000135 0.003880 0.000167 0.001826 0.000708 -0.000867 -0.002830 0.001801 0.002853 0.001227 -0.001877 0.001739 -0.001004 -0.000712 0.003485 0.002638 0.003683 -0.001912 0.000777 -0.001359 -0.000277 0.002597 -0.002486 0.001402 -0.002822 -0.000322 0.003282 -0.003743 -0.002150 -0.000880 -0.001877 -0.002794 0.002530 -0.001387 -0.002101 0.000950 -0.002859 0.003837 -0.004520 -0.001736 -0.003324 -0.002261 0.000739
9 -0.001826 -0.000985 -0.003297 -0.000677 0.000339 -0.000860 0.000154 0.002353 0.004365 -0.000595 0.000600 0.004169 0.000962 -0.004818 -0.001219 -0.002420 -0.002186 0.001863 -0.001951 0.001646 -0.002179 0.003336 0.004952 -0.003417 -0.001345 0.002196 -0.001944 -0.003966 -0.000762 0.002593 0.001000 0.003896 -0.002521 -0.001928 0.002933 -0.003062 0.004190 0.000472 -0.003714 0.002267 -0.004764 -0.003219 0.002189 0.004064 -0.003792 -0.001458 0.000184 -0.002785 -0.001768 -0.003844 -0.003270 0.002104 -0.002019 0.001241 0.002404 -0.001762 -0.002035 -0.000359 -0.001303 -0.002130 0.001255 -0.001360 -0.002989 0.002646 0.001946 -0.002088 0.001485 0.000002 -0.001459 -0.000379 0.001499 0.003273 0.003660 -0.001916 0.003784 -0.001978 -0.002155 0.003974 -0.003148 0.002285 0.002118 -0.001887 -0.003716 -0.005054 -0.002255 0.000108 0.000308 -0.000020 -0.002151 0.001534 0.002932 -0.001157 0.004746 0.003413 -0.001442 -0.002870 0.001514 -0.000317 0.000623 0.002086 -0.004820 -0.002880 -0.004080 0.000745 0.000677 0.000497 -0.000642 0.004029 -0.004416 -0.003690 0.002989 0.000230 0.003473 -0.001636 -0.000825 -0.002226 -0.003559 0.004284 -0.002384 0.002971 -0.001906 -0.002705 -0.001296 -0.000538 -0.002914 0.003681 0.000275 0.002381
5 0.000220 -0.004300 -0.003961 0.000057 0.003024 -0.001771 0.003820 -0.002991 0.004122 -0.002641 0.002865 0.003577 -0.002461 0.000131 0.002013 -0.004290 -0.002148 -0.003622 -0.001160 0.002229 0.002897 0.003130 -0.002847 0.004027 0.001595 -0.002896 -0.000860 -0.003447 -0.001032 -0.000345 -0.002300 -0.000978 -0.002473 0.001657 0.001872 -0.003553 0.001545 0.001878 -0.001067 -0.000206 0.002548 -0.000555 -0.001672 0.000307 -0.003148 0.000694 0.000501 -0.001208 0.000074 -0.001894 -0.001337 0.003891 0.003402 -0.003224 0.001775 -0.002593 0.002047 -0.001260 0.002314 -0.003682 -0.000881 -0.003105 0.002311 0.003377 -0.003070 0.000204 0.002910 -0.000701 0.001277 -0.003255 -0.001993 0.000652 -0.002426 -0.003408 0.001400 -0.002974 -0.002035 -0.002947 -0.003233 -0.003507 -0.003098 -0.000103 -0.001631 -0.000707 -0.002748 -0.003574 0.002371 0.003378 0.001933 0.000043 0.003495 -0.001299 0.002226 0.001157 -0.003290 0.001543 -0.003505 -0.002814 0.003945 0.003900 -0.004752 0.000307 -0.002581 -0.003853 -0.003659 -0.000896 0.001960 0.000425 -0.003466 -0.001520 -0.002339 0.000172 0.001326 -0.002872 -0.002834 0.003307 0.003337 0.001165 0.002828 0.001544 -0.000587 0.001284 0.000984 -0.004654 -0.003752 0.002227 -0.001624 0.004256
31 0.001262 0.000059 0.003031 0.002656 -0.000706 -0.003909 -0.000200 -0.003275 -0.003056 0.000993 0.002937 0.004630 0.003849 -0.004227 -0.000150 -0.004476 -0.003978 0.001079 0.001587 0.000094 0.001704 -0.001583 -0.001812 0.003043 0.001420 0.000895 0.002077 0.003514 0.000162 0.000740 -0.002604 0.004135 -0.003982 0.003080 0.001694 0.002275 -0.000062 -0.000250 0.003377 -0.004201 -0.000462 0.002610 0.000730 -0.001134 -0.002296 0.000251 -0.002713 -0.003494 -0.001138 0.001947 -0.003894 0.003817 0.000528 -0.001403 0.000278 -0.002427 0.001080 -0.002001 -0.004142 -0.003407 0.003834 -0.001877 -0.003497 -0.002536 -0.002834 -0.001864 -0.004039 -0.001945 -0.002357 -0.000677 -0.000011 -0.002082 0.000424 -0.000187 0.002665 -0.000087 0.004059 -0.000686 0.003438 0.002089 0.001029 -0.002191 -0.002376 -0.002882 0.000761 0.000546 -0.003134 -0.002487 0.000357 -0.002821 -0.003229 0.003415 0.004164 -0.001080 -0.004432 0.000981 -0.003123 -0.000477 -0.000091 0.003207 -0.004882 0.000213 -0.000684 -0.003562 -0.001787 0.001175 0.002360 0.002996 0.001452 -0.000014 -0.002862 -0.003897 -0.002103 -0.002836 0.000792 0.002696 -0.003474 0.004332 -0.004280 0.002462 -0.002613 -0.002639 -0.002020 -0.004530 -0.001288 0.002613 -0.003602 0.000513
26 0.002912 0.001641 0.000846 -0.001165 0.001732 -0.002469 0.002098 -0.001439 -0.003647 -0.001644 -0.001462 -0.002885 0.003511 -0.003219 -0.001253 0.002096 0.001439 -0.000404 -0.001317 0.001564 0.003882 0.000821 0.003647 0.001971 -0.001838 -0.001836 -0.003804 -0.002395 -0.001897 0.003337 0.002029 0.000947 0.001113 -0.003399 -0.003835 -0.003359 0.002177 -0.001120 -0.001513 -0.001410 -0.000845 -0.003118 -0.002723 -0.000818 -0.002162 0.004106 -0.003309 -0.000207 -0.001585 0.002983 0.002986 0.002596 -0.001514 -0.002944 -0.000168 -0.000902 0.001356 0.001050 -0.003375 0.000580 0.002119 -0.002057 0.000516 0.003834 0.000560 0.000103 0.001633 -0.003162 0.000821 0.000479 0.000377 0.000646 -0.002236 -0.000867 0.002284 -0.002793 -0.003664 0.000102 -0.001152 -0.001400 -0.003008 0.001710 0.000968 0.000938 0.001859 0.002599 -0.003439 0.000536 -0.000324 -0.000290 0.001499 0.000440 0.003160 0.003733 0.002439 -0.001468 -0.001071 0.000984 0.003079 -0.001999 0.000821 -0.000108 0.000237 0.002466 0.001510 0.001912 0.003180 0.001100 0.003573 0.003261 -0.003054 -0.001703 0.000878 0.002801 0.000973 -0.000113 0.001048 -0.001810 0.003565 -0.003842 -0.000358 -0.002748 -0.002121 -0.003916 0.000861 0.003091 -0.001831 -0.003319
25 -0.002981 -0.001825 -0.002274 -0.001237 -0.003390 -0.001235 -0.001840 -0.002685 0.003840 -0.000497 -0.001494 -0.001917 0.000208 0.002654 -0.000899 -0.003724 0.002044 -0.002263 0.002233 0.003569 0.003289 -0.001078 0.003115 0.002634 0.001168 -0.003457 0.000970 -0.001192 -0.003659 0.002280 0.001881 0.000499 0.000605 -0.003235 -0.003761 0.001261 -0.002840 0.003239 -0.002303 -0.002086 -0.003593 0.002268 -0.001817 -0.002814 0.001873 0.003667 0.001617 0.003126 0.002772 0.000150 -0.003899 0.003087 0.002110 0.001632 -0.003569 -0.001641 0.002487 -0.003756 -0.001021 0.003200 -0.001471 0.002100 0.001978 -0.001229 -0.003309 -0.001958 -0.000933 0.001913 -0.003653 0.000225 -0.000601 -0.002233 0.002032 0.002469 -0.001041 -0.003563 -0.003531 0.002174 0.002104 -0.001543 0.000047 -0.002434 -0.000125 -0.003412 -0.000919 -0.000646 -0.000297 -0.003697 -0.003395 -0.003609 -0.002285 -0.000878 0.003538 -0.002626 -0.001643 0.001555 0.000038 -0.000337 0.001040 0.001579 -0.003666 0.001642 -0.003438 0.000928 0.001767 -0.001061 0.001576 0.001921 0.002179 -0.001640 -0.001799 0.000067 0.001657 -0.001991 -0.004050 -0.001081 0.002388 -0.000220 -0.000823 -0.001155 0.000911 0.003186 -0.001074 -0.002802 -0.001994 0.003948 -0.003291 0.000129
29 -0.001346 -0.001042 -0.002126 -0.001404 0.001885 -0.002682 0.000269 -0.002938 0.000203 0.001328 0.001513 0.004102 -0.001676 -0.002103 -0.000070 -0.003152 -0.003666 -0.004009 0.002197 -0.000292 0.002783 -0.001650 -0.002802 -0.000820 -0.002774 -0.001906 -0.000478 -0.001856 0.003057 0.002775 0.002594 -0.000795 0.002108 -0.000166 -0.003211 0.000396 0.004171 0.001778 0.001877 -0.004043 0.002699 0.002416 -0.003315 -0.003094 0.001626 0.004175 -0.001732 -0.001095 -0.002430 0.000356 -0.001615 -0.000087 -0.002016 0.000336 -0.004508 0.003518 0.003616 0.002543 0.001184 0.001677 0.001840 -0.003911 -0.002564 0.000665 -0.003270 -0.002526 -0.003853 -0.001200 0.002320 0.003069 -0.003078 0.000017 -0.003262 0.002187 0.001149 0.003418 0.003553 0.000715 0.001218 -0.000110 -0.003883 0.001944 0.002135 -0.003599 0.000599 0.001398 0.002535 -0.003475 0.000271 -0.003632 0.001523 -0.002789 -0.000148 0.001169 0.003110 0.003724 -0.003251 0.002963 0.000097 -0.003116 -0.003386 0.002894 -0.001656 0.000643 0.001340 0.000581 -0.002167 -0.002406 0.000825 0.001270 0.002186 0.000512 -0.003104 -0.002100 -0.003503 -0.003352 -0.001925 -0.002566 0.002687 -0.000345 -0.001489 -0.001228 -0.002617 -0.003222 0.002452 0.002469 -0.001551 -0.002838
20 -0.000947 -0.002544 -0.000033 0.001079 -0.002719 -0.004314 0.003901 0.002270 -0.002428 -0.001581 -0.002385 -0.001932 0.004309 -0.001512 -0.001517 -0.001954 -0.003211 0.000772 -0.001331 -0.002771 0.003087 -0.001767 0.003511 0.000390 0.001671 0.002706 0.003487 -0.001112 0.001405 -0.002568 -0.003107 -0.000937 0.000711 -0.000727 0.002068 0.001069 0.004468 -0.002427 -0.002751 -0.004285 -0.004429 -0.002056 -0.001992 0.000874 0.001064 0.000320 0.003177 -0.000211 0.001080 -0.002848 -0.004270 0.001067 0.002774 -0.003296 -0.001410 0.000235 0.000051 -0.003739 -0.003526 0.002338 0.004643 0.000817 0.001344 0.002012 -0.000695 -0.001028 -0.000060 0.002549 -0.002990 0.002444 -0.002217 0.001728 -0.001644 -0.000761 0.000246 0.002129 0.002089 -0.000599 0.001248 0.002654 0.000531 -0.004034 -0.000688 -0.004446 0.001989 0.004084 -0.002781 0.001222 -0.002328 0.001869 0.003145 0.000479 0.001155 -0.001123 0.000721 0.000309 0.001599 -0.001001 -0.002228 0.003663 -0.003278 -0.002821 -0.004221 0.003225 -0.000560 0.002817 0.000069 0.001109 0.002733 0.002401 -0.001945 0.002317 0.000610 0.001505 -0.002872 -0.001908 0.002767 0.002720 -0.000213 0.000924 -0.000800 0.003335 0.000027 -0.004106 0.000773 0.002418 -0.002615 0.001661
18 0.001065 -0.000705 -0.003329 -0.000887 0.001848 -0.001628 -0.003010 0.002374 0.002993 0.003854 -0.000943 0.003471 0.003475 -0.001290 0.000950 -0.004428 -0.001641 0.001154 -0.002980 0.003974 0.004743 -0.000523 0.004744 0.000675 0.003416 0.003242 0.000323 -0.000277 0.001917 0.001838 -0.000145 0.002669 0.001022 0.002638 0.001339 -0.002615 -0.000508 -0.000063 0.000977 0.002804 -0.002078 0.003898 -0.002697 -0.000706 -0.001624 0.003254 -0.003549 -0.000111 0.001718 -0.001985 -0.000907 -0.002414 0.003414 0.003759 -0.001239 0.003126 0.000436 -0.003582 -0.002200 -0.001147 0.002497 -0.004288 0.000081 0.000058 0.003164 0.000540 0.000458 -0.001965 0.003084 0.002957 -0.002584 -0.000264 0.002846 -0.003981 0.003490 0.002302 0.003865 0.002459 0.001420 -0.000578 -0.004102 0.001652 0.001950 -0.003635 -0.003625 0.001827 0.002986 -0.000510 -0.002663 0.002946 0.001243 -0.002841 0.003821 -0.003265 -0.004523 0.002023 -0.002573 0.002512 0.002200 -0.001657 -0.001594 0.002921 -0.000762 0.000855 0.000446 0.000676 -0.002052 -0.002681 -0.001310 -0.003471 -0.002286 -0.002667 -0.002825 -0.002420 -0.000061 -0.002494 -0.000303 -0.002468 0.002313 -0.001034 -0.000825 -0.003873 -0.000449 -0.002193 0.001751 -0.003464 -0.002879 -0.001916
15 -0.004040 -0.003475 0.002773 -0.002848 0.001093 0.003121 0.002539 -0.003234 0.000543 -0.001361 0.001318 0.000464 0.000630 0.000579 0.001438 -0.002572 -0.003093 -0.002613 -0.002969 -0.003140 0.004247 0.001917 0.001368 0.001228 -0.002892 -0.000094 -0.002710 -0.000342 0.000437 -0.002184 -0.002394 0.002501 0.002746 -0.000474 -0.000146 -0.000628 -0.000875 0.000322 0.003584 0.000913 -0.003899 0.000285 -0.000160 0.001041 0.001876 0.003992 -0.003779 -0.001176 -0.000767 -0.001637 -0.000933 0.001243 -0.000273 0.002144 -0.003380 -0.004164 -0.004267 -0.003707 0.000586 0.002992 0.004015 0.002432 0.000470 -0.002559 0.001148 0.003065 0.000784 -0.000598 0.002884 0.002366 0.002023 -0.001927 0.001972 -0.003733 -0.001936 -0.001255 0.002008 0.000408 -0.004066 -0.003084 -0.000336 0.001768 0.000004 -0.003881 -0.003594 -0.002196 -0.001481 -0.003700 0.000081 0.002443 0.002298 0.002371 0.003962 -0.002370 -0.003991 0.003043 0.001153 0.003474 0.002059 0.003481 0.001801 -0.000039 -0.003732 0.000888 0.002289 -0.002728 0.003302 0.001916 -0.000764 -0.004124 0.000439 -0.001038 -0.001531 -0.003218 -0.002941 0.003099 0.001667 0.004776 -0.003878 0.003025 0.002343 -0.003686 0.003766 0.001623 -0.004380 0.000826 0.001956 0.002847
21 -0.003548 0.002770 0.000326 -0.003475 -0.003439 -0.001212 -0.000609 -0.002477 0.000839 0.003789 0.000275 0.000919 0.000905 -0.004061 -0.000483 -0.000321 -0.000023 -0.000476 0.002099 0.000937 0.003038 -0.000433 -0.000592 0.001963 0.000552 -0.001365 0.001355 0.000389 0.000397 0.000280 0.002705 -0.000704 -0.000031 0.001828 -0.003546 -0.002879 -0.000219 0.004017 0.002708 0.000940 -0.003728 0.003796 -0.002380 -0.001861 -0.003690 0.001561 0.000703 0.000589 0.002898 -0.000701 0.002808 0.002735 0.002893 -0.002276 -0.001653 0.001388 0.000062 -0.003391 -0.003954 0.003154 -0.001662 -0.000497 0.000550 0.003436 0.003644 -0.001530 -0.000650 -0.003465 -0.002199 -0.004129 0.003202 -0.003842 0.000860 0.001592 0.002759 0.000051 -0.002332 -0.002631 0.001498 0.002808 -0.002175 0.000384 -0.001636 -0.004521 -0.003124 -0.001742 -0.002351 -0.002165 0.003463 -0.002784 0.003730 0.001682 -0.001602 0.003569 -0.000475 -0.001010 -0.002880 0.001837 0.001413 -0.000351 -0.002118 -0.001634 -0.001647 0.003270 0.003861 0.002570 0.000111 -0.002548 -0.001710 -0.002543 0.003967 0.002889 -0.000843 0.001458 -0.002291 0.003530 -0.003796 0.000181 0.000468 0.003713 -0.000675 -0.001925 0.000263 -0.004514 0.002295 0.001212 0.003052 -0.002957
13 0.002589 0.000014 0.001372 -0.002667 -0.001094 -0.000844 0.001333 -0.002456 0.001039 0.002715 -0.002256 -0.002342 0.001795 -0.003537 0.001092 -0.000705 -0.003033 -0.001507 -0.001277 -0.002810 0.003982 -0.000142 -0.003322 0.001034 -0.003611 -0.000123 0.003547 0.002545 0.000940 0.000289 -0.002440 0.002179 -0.001185 -0.002119 0.000033 -0.002533 0.003855 0.003846 0.000565 -0.000915 0.001749 0.000362 0.000269 0.002034 -0.000141 0.003434 0.001153 0.000673 -0.001901 0.002519 -0.002734 0.002932 0.002239 0.002704 -0.002952 -0.002630 -0.003291 -0.002577 0.002321 -0.002593 0.002613 0.000297 -0.002283 -0.002682 0.002606 -0.002865 -0.002473 -0.002429 0.003051 -0.003730 -0.002542 -0.001661 -0.000011 -0.002373 0.001530 -0.003399 -0.001081 -0.001529 -0.003043 -0.002786 0.000179 -0.002943 -0.001012 -0.002048 -0.003833 -0.000024 0.002433 -0.000674 -0.002844 0.003911 0.004064 -0.001637 -0.002469 -0.003331 0.000415 -0.001818 -0.000205 -0.003883 -0.002541 0.000194 0.002587 0.000348 -0.001264 -0.000021 -0.001286 -0.003772 0.003228 -0.002093 -0.000411 -0.003911 0.003629 -0.000696 -0.000888 0.002877 -0.003318 -0.002812 -0.003030 0.003452 0.001088 -0.002093 0.000746 0.002600 0.003802 0.001224 -0.001516 0.002650 0.001864 0.003093
17 -0.000632 -0.001598 0.000768 0.002693 -0.003735 -0.003004 0.002553 0.002253 0.003987 0.003230 0.001369 0.004369 0.002067 0.001702 -0.002118 0.002269 -0.000031 -0.004166 -0.001904 0.002499 0.000364 -0.003578 0.003228 -0.002516 0.003165 0.002253 -0.001329 -0.000284 0.001887 0.003367 0.000865 0.000388 0.001946 -0.000784 -0.002125 -0.003562 0.002981 0.002003 -0.000898 0.001744 -0.001565 -0.003437 -0.001869 0.003091 -0.002255 -0.001576 0.001465 0.002133 -0.000488 0.001647 -0.002383 -0.001495 0.000637 -0.003633 0.001923 -0.001638 -0.003755 0.003724 0.002541 -0.003543 0.001427 -0.001694 0.001946 -0.001193 0.000601 0.002558 -0.000724 -0.000673 0.000657 0.001403 -0.002771 -0.000597 0.000506 -0.002371 0.003072 0.003766 -0.002481 -0.002203 0.000917 -0.003335 0.000958 -0.000191 0.003083 0.002727 -0.003804 0.000042 0.003351 -0.002025 0.003955 -0.000933 -0.002556 -0.000424 -0.000271 0.003360 -0.001509 -0.000201 0.003233 0.001408 0.002804 0.002574 0.001289 -0.000528 -0.002507 0.001878 0.000248 -0.001138 0.001082 -0.002222 -0.002464 0.002859 -0.000059 0.000731 0.003830 0.001547 -0.000006 -0.000238 -0.001192 0.003827 -0.001017 -0.003377 0.002908 0.002710 0.002256 0.001639 -0.004087 -0.001651 0.000023 0.003076
19 0.003237 -0.002343 0.003444 -0.001916 -0.001008 0.000813 -0.000706 -0.002271 0.002162 0.000402 -0.003298 0.002670 -0.001041 0.000616 -0.001376 0.000695 -0.003111 -0.003487 0.002568 0.003595 0.001383 -0.003281 0.000516 0.001847 0.000142 0.003167 -0.001136 0.000450 -0.001252 -0.001212 0.000040 0.001410 0.001061 -0.003761 -0.001246 -0.000342 -0.003552 0.002606 0.002654 0.000908 -0.000079 -0.000606 0.000064 -0.001145 0.002877 0.001719 0.002579 -0.002833 -0.000864 0.001535 -0.001684 -0.000368 -0.003261 -0.001706 0.003282 0.002253 -0.003117 0.001902 0.003604 -0.001211 -0.000418 -0.002587 0.002978 0.002716 -0.000469 -0.003492 0.002784 -0.000814 -0.002374 -0.002673 0.000780 -0.000020 0.000628 0.000719 -0.002013 -0.003790 0.003008 0.002179 -0.003207 -0.002942 -0.000948 0.000162 0.000185 -0.003346 -0.002299 0.000268 0.002746 0.001707 -0.002871 -0.001584 -0.000345 0.002817 0.004000 0.002207 -0.002119 0.003142 -0.000696 0.000279 0.000830 -0.002848 0.001779 0.002221 -0.003346 -0.002620 -0.000827 0.000563 -0.000200 0.000363 -0.000982 -0.001316 -0.002071 -0.000185 0.000729 -0.002323 0.002956 0.002502 0.003543 0.003404 -0.003074 0.002949 -0.001424 -0.001419 -0.001807 -0.002968 -0.003430 0.000932 -0.003472 -0.002513
16 -0.000530 0.001146 0.000887 0.000170 -0.001025 -0.000359 0.002616 -0.000940 0.000205 0.000720 -0.002364 0.001736 -0.001699 0.002932 0.002986 -0.002406 -0.003598 -0.004058 -0.003785 -0.003378 -0.000477 0.001257 0.002629 -0.001314 0.001568 0.000361 0.001193 -0.000499 -0.001314 -0.003410 -0.002751 0.002027 -0.001211 -0.003637 0.001571 0.001581 0.003751 -0.002872 -0.002282 -0.003833 -0.002520 0.003309 0.002462 0.000389 0.001751 -0.001327 0.002198 0.002649 -0.002813 0.003864 0.002834 0.001060 0.000776 0.001752 0.001525 0.000173 -0.000343 0.000574 0.000539 -0.003391 0.002284 -0.003934 -0.001316 -0.003523 0.001787 -0.001134 -0.000094 0.003385 -0.001518 -0.003185 0.002935 -0.003755 0.001069 -0.002286 0.003341 -0.001559 0.003397 -0.002353 -0.001954 0.001379 0.003550 -0.002042 0.000619 -0.001763 0.000866 0.003669 0.000358 0.003194 0.001852 0.000819 -0.003145 0.001388 -0.003660 0.001403 0.000273 0.002519 0.003042 -0.001657 -0.001645 -0.003894 0.003301 0.001940 0.003655 -0.002383 -0.002280 -0.002656 -0.001831 -0.000532 0.002670 0.001404 -0.001169 0.003650 -0.003762 0.002029 0.001696 0.002222 -0.001284 0.002822 0.000664 -0.002314 -0.000854 0.001601 -0.001862 -0.002202 0.002950 0.002280 0.000532 0.003796
10 0.000546 -0.001110 -0.001958 0.000959 0.001803 0.003384 0.002591 -0.000008 0.003486 -0.002711 0.001978 0.002872 -0.002289 0.002468 -0.001581 0.002453 0.001252 0.002204 -0.002050 0.001068 0.002540 -0.000528 0.001180 0.003759 -0.001525 -0.001038 0.001350 -0.002695 -0.001012 -0.002039 -0.003133 -0.003063 0.001313 0.003123 -0.003467 -0.001085 0.003164 -0.003189 -0.002924 -0.003566 -0.002854 -0.001190 0.003648 0.003732 0.002731 0.004102 0.003839 -0.001171 0.003963 -0.002987 0.000067 0.001669 0.003295 -0.001368 -0.001716 0.002111 0.001465 -0.003481 -0.003622 0.001750 0.001766 -0.000627 -0.003826 0.001370 0.000273 0.000922 -0.002062 -0.002274 -0.003540 -0.003340 0.002662 -0.003052 0.003681 -0.000435 0.003851 0.001461 0.000037 -0.001635 -0.003178 -0.000193 -0.004031 -0.002900 0.000125 0.002095 -0.003462 0.001201 -0.002799 -0.002716 -0.000057 -0.001817 0.003645 0.000879 0.003758 0.002851 -0.000002 0.002878 -0.000862 -0.003623 0.001174 0.002469 -0.002095 -0.001351 -0.000588 0.000900 -0.001989 -0.000830 0.004123 0.003936 -0.003126 0.001765 0.003488 -0.003886 0.001956 -0.001404 0.001418 0.000270 0.000939 0.003354 -0.001453 -0.002901 -0.000462 -0.001860 0.000167 -0.000271 0.003603 -0.000889 -0.002052 0.001385
22 0.002286 -0.002581 -0.000785 0.000237 -0.000462 -0.003035 -0.000722 -0.000890 -0.002184 -0.001135 -0.001471 0.001651 0.002336 -0.002655 0.002230 -0.002093 -0.002802 -0.001517 0.003730 0.003449 0.003163 -0.000294 0.003895 0.000511 -0.002888 0.003291 -0.001222 -0.003955 0.001998 0.003061 -0.000140 -0.002413 -0.003188 0.000246 -0.001521 -0.003176 -0.000372 -0.001208 -0.002328 -0.003252 0.002922 -0.003517 -0.002681 0.003358 0.001681 0.004122 -0.003405 0.002009 0.002807 -0.001734 -0.002741 -0.001569 -0.003172 -0.001208 0.003005 0.000353 0.002526 0.003127 0.001855 -0.003013 0.002040 0.001110 0.001795 0.003703 -0.000777 0.000870 -0.003961 0.001937 0.003497 0.002641 -0.001738 0.002040 -0.000394 -0.001649 0.004160 0.001714 -0.002626 0.001851 0.002839 -0.000627 -0.003180 -0.001571 0.002414 -0.004227 -0.000598 -0.002133 0.002967 -0.003384 0.002491 -0.000066 0.002458 -0.001593 0.000640 -0.003524 -0.000977 0.001067 -0.001177 0.000213 0.003222 -0.002447 -0.001365 0.000977 0.001330 0.002752 0.001066 0.002886 0.000072 0.002699 -0.000185 0.000196 0.002752 0.000329 0.002483 0.002802 -0.001897 -0.000347 -0.002873 0.000586 -0.002970 -0.001070 0.001420 -0.002278 0.001547 -0.002958 0.000904 0.000730 0.002282 0.000835
23 0.000430 0.002246 -0.003679 0.001370 -0.000538 0.002296 -0.000685 0.003422 0.002045 -0.001571 -0.001663 0.000792 0.000944 -0.003396 -0.002896 0.001574 -0.000627 0.002516 0.001715 0.003847 -0.000688 -0.001523 -0.002740 0.002683 0.001024 -0.000825 -0.003500 -0.003140 -0.003440 0.002608 -0.000706 0.001289 -0.000911 -0.000164 -0.003682 -0.002755 0.002049 -0.002174 -0.002901 0.000284 -0.001224 0.000472 0.001840 0.002075 0.001848 -0.001265 -0.001509 0.002884 -0.002265 -0.000757 0.000817 -0.000519 0.002888 -0.003024 -0.000571 -0.003637 -0.002273 -0.000469 -0.000394 -0.003458 0.000849 -0.002099 0.002894 0.001338 0.002840 -0.000867 0.001951 0.003287 0.001161 0.002828 0.000295 0.000750 0.003853 0.000378 -0.003230 0.000354 0.002357 0.000959 0.003517 0.001695 0.003558 -0.002661 0.002915 -0.001087 -0.001760 0.003227 -0.002002 0.001165 -0.002642 -0.001576 0.001470 0.001283 -0.002843 -0.000298 -0.004128 -0.001767 0.000905 -0.001691 -0.001062 0.003643 -0.001776 -0.001009 0.002636 -0.003409 -0.000800 -0.003112 -0.002646 -0.001627 0.001779 0.000947 -0.003506 -0.002563 -0.001478 -0.003234 -0.001544 -0.001078 -0.002667 0.001869 0.000291 0.000381 0.001350 0.002450 -0.002293 -0.002873 0.001790 -0.002799 -0.000363 -0.000053
27 0.001797 -0.004654 -0.002517 -0.003033 0.000828 0.001034 0.002059 0.003649 -0.002506 0.000871 -0.002105 -0.001153 -0.000910 0.002571 -0.000577 -0.003194 0.003419 -0.002674 0.000070 -0.003547 0.003681 0.001744 0.002110 0.003675 0.000420 -0.003383 -0.003797 0.003141 -0.001871 0.001885 0.000455 -0.002755 -0.001900 -0.002371 0.001774 -0.002898 -0.001234 -0.000163 -0.001446 -0.003135 -0.003739 0.000113 -0.000371 0.001405 0.000664 0.003130 0.003751 -0.000931 0.000262 0.002320 0.002172 0.002967 -0.002265 0.003675 -0.001294 -0.003379 -0.000956 0.001158 0.002952 0.001757 -0.001997 0.003198 -0.002180 0.000242 0.000637 -0.000078 -0.002848 0.002821 -0.000913 -0.001290 -0.003621 0.003073 0.000588 -0.004006 -0.001891 -0.003534 0.002648 -0.002393 -0.001926 0.001029 -0.003229 -0.001151 -0.000326 0.002793 -0.003971 0.001020 0.003657 -0.001442 -0.003883 0.000753 -0.002542 -0.003463 0.001474 0.000732 -0.003240 0.000788 0.000468 -0.003029 0.003331 -0.002771 -0.004722 0.000610 0.002269 -0.003819 0.002095 0.002252 0.004003 -0.002530 -0.003310 0.002091 0.001999 -0.000404 -0.000932 -0.001759 0.001458 -0.001831 -0.000529 0.001725 -0.003038 -0.000464 -0.002732 0.002511 0.001905 -0.003897 -0.003096 0.002513 0.001135 0.000712
12 -0.003976 -0.003799 0.000471 -0.002586 -0.001983 -0.001778 -0.002206 -0.003438 -0.002190 0.002647 0.003592 0.004300 -0.000758 0.001465 0.000129 0.002075 -0.003629 0.000811 0.002469 -0.003500 0.001947 0.003055 0.001932 -0.001975 -0.003493 -0.001628 0.002068 0.001097 0.000535 -0.000228 0.001567 0.001663 -0.004006 0.001230 0.000954 0.002408 -0.000663 0.002684 0.000072 0.001716 -0.000451 -0.000144 0.002267 -0.000656 -0.001397 0.003869 0.001739 -0.001130 -0.003179 -0.001331 -0.001912 0.002235 -0.000607 -0.003625 -0.003482 -0.003496 0.000276 0.000550 -0.000281 0.001560 0.002954 0.001115 -0.002620 0.002552 -0.003197 0.000216 0.002206 -0.000377 0.003194 0.003379 0.003837 0.002101 0.001368 0.001031 0.001116 -0.000457 0.003780 0.003306 0.000594 0.003682 -0.001073 0.000609 -0.003273 -0.002608 -0.003204 0.003530 -0.000745 -0.000879 -0.002472 -0.003082 -0.000021 0.002885 -0.001102 -0.001265 0.001491 -0.002046 0.002417 -0.003838 0.001692 0.000044 -0.004376 -0.003146 -0.000038 0.000694 0.000237 -0.003618 0.000925 -0.000229 0.003393 -0.003595 -0.003328 -0.000351 -0.000001 0.002370 0.000723 0.003009 -0.001470 0.003745 -0.004047 -0.003239 -0.001831 -0.002142 0.001854 0.002014 -0.001716 0.000641 -0.003803 0.000266
