34 128
18 -0.00400224 0.198321 -0.0556586 -0.124541 -0.0778519 -0.0729839 0.0626527 -0.353096 -0.46559 0.164766 0.0765022 -0.328834 0.113055 -0.752426 -0.345248 -0.0555961 0.310983 -0.178138 0.0369295 0.0145685 -0.373767 0.363683 0.169955 -0.357663 0.262911 0.00223223 -0.329292 -0.363906 -0.0338564 -0.16683 -0.0374026 0.375936 -0.0249715 0.205223 0.152607 -0.0966661 -0.162789 0.284425 0.113354 0.162331 0.0426934 0.272799 -0.257745 0.0327546 0.30525 0.46932 0.193699 -0.170139 0.00176466 -0.277002 -0.226109 -0.32944 -0.0956336 0.124265 0.339299 0.112255 0.0952181 -0.319862 -0.0339341 0.322072 -0.0183671 -0.24508 0.245493 -0.402257 0.0866551 -0.195584 -0.0440478 -0.0631573 -0.071207 -0.0904219 -0.284004 0.167117 0.102444 0.294846 0.209779 0.0264096 0.0333733 -0.314908 0.179978 0.100302 0.328708 -0.424843 0.0443303 0.00601854 0.0785321 -0.247355 -0.00831628 0.0977287 0.103514 -0.26671 -0.488792 0.360107 0.0187906 0.06296 0.0690984 -0.0537963 -0.0532813 -0.0607996 -0.0388873 0.102167 0.125086 -0.195476 0.00762866 -0.153229 -0.265539 -0.260366 -0.0971288 0.122594 -0.437905 -0.482161 0.0926619 -0.138982 0.147226 0.126852 -0.317854 0.249958 0.190127 -0.170461 0.0389158 0.129445 -0.0488574 0.0929549 -0.0655847 0.140995 -0.0502264 -0.16653 -0.124062 -0.0357019
1 -0.120293 0.0819201 -0.0467995 -0.0455548 0.0311552 -0.0835292 0.12026 -0.203458 -0.304247 0.030885 0.0792111 -0.140394 0.00687753 -0.410151 -0.166826 -0.0703477 0.124695 -0.100839 -0.00936469 -0.0135935 -0.381336 0.242665 0.215225 -0.266759 0.146114 -0.0185438 -0.24396 -0.154449 0.00122603 -0.0799804 -0.0667992 0.264018 -0.0914111 0.0658692 0.146437 -0.1511 -0.187533 0.273978 0.186672 0.128956 0.0409829 0.243842 -0.219328 0.0507694 0.129575 0.30197 0.165802 0.0118384 -0.0134782 -0.145145 -0.185753 -0.22424 -0.131723 0.07849 0.32333 0.180066 -0.0676991 -0.145472 -0.0104725 0.287313 0.147168 -0.207938 0.178461 -0.299387 0.0469038 -0.176139 -0.0747505 0.0366835 -0.168971 -0.0733781 -0.0742057 0.139124 0.155982 0.194359 0.121388 0.0803556 0.113312 -0.0954021 0.202648 0.139046 0.274696 -0.416907 0.146486 -0.0307532 0.0679533 -0.273007 0.256509 0.165312 0.137021 -0.199896 -0.483541 0.42732 0.0199714 0.115691 0.0747899 -0.140455 0.00618796 -0.0841086 0.0816419 0.161963 0.125087 -0.197043 -0.0476167 -0.165019 -0.260126 -0.266544 -0.273014 0.0419701 -0.426069 -0.367988 0.025934 -0.094479 0.147532 0.275042 -0.134205 0.122333 0.192978 0.0447834 -0.046538 0.0151154 -0.0327398 0.0276868 -0.0533837 0.0428742 -0.114065 -0.146128 -0.177147 -0.0424386
7 -0.0473591 0.0848333 -0.11135 -0.0867746 -0.0610628 -0.155966 0.168515 -0.30754 -0.333719 -0.00116436 -0.0321694 -0.233568 0.0499239 -0.464398 -0.211586 -0.0521013 0.286915 -0.242732 -0.0656019 0.000214226 -0.314847 0.284745 0.057169 -0.231343 0.230076 -0.0340043 -0.252972 -0.227997 0.0233114 0.0575769 -0.106301 0.248229 0.0293249 0.0697487 0.216029 -0.153827 -0.115881 0.272484 0.144902 0.16229 -0.0772328 0.21968 -0.152246 0.0229948 0.278176 0.440604 0.316716 -0.0354989 0.00203131 -0.0883596 -0.141197 -0.245539 -0.223418 0.00655597 0.401566 0.140049 0.105871 -0.224961 0.0057423 0.255845 0.114455 -0.142582 0.145078 -0.256519 0.0155911 -0.167962 0.0844998 0.0593295 -0.126036 -0.035519 -0.167999 0.206415 0.16276 0.3426 0.17842 0.0529608 0.0814875 -0.294286 0.254432 0.087877 0.24447 -0.564866 0.0634069 0.0781831 0.16545 -0.253076 0.312265 0.293368 0.289369 -0.437546 -0.668148 0.465215 0.155208 0.147117 0.159059 -0.146657 -0.0112747 -0.0645141 0.0206016 0.147641 0.172024 -0.17706 -0.0843109 -0.192346 -0.327607 -0.200232 -0.228065 0.112326 -0.374256 -0.451729 -0.0260757 -0.145641 0.137587 0.15665 -0.140663 0.307032 0.33844 -0.032221 0.0128593 0.111429 0.0411937 0.139008 -0.0301498 0.0839872 -0.151015 -0.102972 -0.164147 0.0469365
6 -0.0369291 0.185419 -0.0746925 -0.0978181 -0.173639 -0.0110212 0.213188 -0.436635 -0.403058 0.00579007 -0.00274358 -0.212643 0.0966232 -0.527306 -0.0993576 -0.0876439 0.329853 -0.30688 -0.101852 0.0746494 -0.184067 0.299716 0.154869 -0.248556 0.2995 0.0245683 -0.336888 -0.354799 0.0244405 -0.0310533 -0.0809061 0.172287 -0.0358509 0.0882893 0.188751 -0.133245 -0.134847 0.167619 0.195447 0.0854389 -0.00913522 0.231052 -0.10209 0.0453254 0.242224 0.325021 0.219992 0.0490853 0.0221248 -0.0148859 -0.084146 -0.298052 -0.171983 -0.00666081 0.22801 0.125754 -0.00562655 -0.125678 0.0678545 0.212028 0.14051 -0.143643 0.136807 -0.298059 -0.0351077 -0.193974 -0.121383 0.0351139 -0.142868 0.0689581 -0.133339 0.138004 0.211516 0.303578 0.220701 0.204969 0.133079 -0.285564 0.220841 0.115622 0.270727 -0.597469 0.0782944 -0.0646243 0.14402 -0.159588 0.323238 0.20415 0.171351 -0.34095 -0.386203 0.414814 -0.0201103 0.103018 0.0604474 -0.17645 -0.0717761 -0.12794 -0.0119285 0.226477 0.112982 -0.160508 -0.0946653 -0.126804 -0.391736 -0.296381 -0.261305 -0.031331 -0.481395 -0.366539 0.0852513 -0.0999177 0.19341 0.285194 -0.24665 0.0701365 0.219594 0.0640647 0.110911 0.0346744 -0.108448 0.10737 -0.0546508 0.0496567 -0.124617 0.00823399 -0.106891 0.0635991
5 -0.0388518 0.149461 -0.0791295 -0.136182 -0.154308 -0.10896 0.22112 -0.416445 -0.432359 0.0159724 0.00868649 -0.253543 0.076247 -0.515678 -0.150894 -0.0996981 0.382352 -0.350294 -0.0816237 0.0426575 -0.215089 0.338877 0.147936 -0.237904 0.303435 0.00988064 -0.363107 -0.34012 0.0401333 0.0254016 -0.0770699 0.150301 -0.0185254 0.102158 0.216771 -0.140373 -0.107554 0.190244 0.198885 0.102046 -0.000672145 0.232767 -0.102969 0.0781483 0.274467 0.400216 0.265958 0.0286838 0.0277455 -0.0577969 -0.104337 -0.331857 -0.240631 0.0180349 0.272122 0.147132 0.0388207 -0.163507 0.0483371 0.222728 0.157027 -0.100595 0.152547 -0.31698 -0.0651692 -0.230088 -0.00554918 0.0549054 -0.111114 0.0648509 -0.157788 0.195339 0.228247 0.330149 0.25957 0.19044 0.0843497 -0.34595 0.243255 0.078312 0.281579 -0.618955 0.0753725 -0.0379551 0.155388 -0.223009 0.406461 0.244422 0.245095 -0.43295 -0.515337 0.456713 0.0382791 0.116252 0.0917673 -0.194157 -0.0408412 -0.119883 -0.00081204 0.186801 0.11868 -0.175865 -0.0750601 -0.102332 -0.364578 -0.29544 -0.286042 0.00470613 -0.473699 -0.421838 0.0416653 -0.126448 0.211645 0.24256 -0.122557 0.16383 0.289176 0.0346962 0.0150073 0.0468766 -0.0288267 0.0789066 -0.0197113 0.0895716 -0.18282 -0.00729301 -0.152731 0.0808368
11 -0.0098427 0.194537 -0.09719 -0.111352 -0.16862 -0.0171444 0.148417 -0.371251 -0.460961 0.0757262 0.0319927 -0.287713 0.135261 -0.581017 -0.160121 -0.063639 0.337068 -0.241488 -0.0436223 0.0452703 -0.27842 0.370934 0.15297 -0.329746 0.356961 0.0207154 -0.341494 -0.419208 -0.00474081 -0.0615307 -0.046707 0.247377 -0.00463838 0.120136 0.163484 -0.116978 -0.131398 0.239775 0.162146 0.103317 -0.0062335 0.234713 -0.172952 0.00962301 0.305398 0.389341 0.23956 -0.0820299 0.0166751 -0.11378 -0.165815 -0.333645 -0.143851 0.0267164 0.280715 0.0991063 0.0797691 -0.228863 0.0370637 0.238613 0.0414484 -0.183582 0.190743 -0.315557 0.0198235 -0.180568 -0.0548346 -0.0118216 -0.105412 0.0225249 -0.232983 0.197587 0.181895 0.371556 0.270832 0.190164 0.0985146 -0.33579 0.269797 0.108208 0.344784 -0.544086 0.0455796 -0.0429922 0.155642 -0.174535 0.209061 0.156639 0.147793 -0.330154 -0.478435 0.410963 0.0214617 0.100069 0.0629243 -0.0980902 -0.0166465 -0.0904798 0.0030026 0.181898 0.0794441 -0.165815 -0.0682994 -0.131529 -0.324731 -0.272644 -0.161129 0.0200273 -0.444493 -0.384986 0.0953009 -0.10952 0.218222 0.195182 -0.301302 0.146564 0.252444 -0.0383444 0.0894389 0.093749 -0.09433 0.0949052 -0.0796322 0.0810233 -0.143954 -0.0597466 -0.144545 0.0353956
23 0.0590202 0.164438 0.0271246 0.0108973 -0.322926 0.0621596 0.112208 -0.451488 0.0334581 0.0316891 0.0160971 -0.0136444 0.109144 -0.491538 -0.0754425 -0.167358 0.161634 -0.147644 -0.10687 -0.0998364 -0.0217265 -0.0096171 0.218844 -0.164183 0.143593 -0.0412924 -0.210465 -0.11165 -0.118781 -0.242061 -0.141142 0.196082 0.0165192 -0.108522 -0.127112 -0.155188 -0.207459 -0.107513 0.16176 0.0297923 -0.0535181 0.217681 -0.203338 -0.00650407 0.064665 0.249638 0.0382247 0.156327 -0.0226664 -0.0669075 0.0188483 0.00708682 0.0467659 -0.0450619 0.284721 0.0882532 -0.229961 -0.105228 -0.00987567 0.258311 0.136622 -0.20293 0.199956 -0.41279 0.237003 -0.149634 -0.499001 -0.0295683 -0.14635 -0.354546 -0.236783 -0.00306809 -0.0103028 0.178344 -0.110001 0.156393 0.326228 0.0872005 0.0357668 0.185161 0.162481 -0.261856 0.246655 0.040155 -0.146067 0.0941598 0.0936955 0.324137 0.105718 -0.100372 0.0531403 0.41586 0.0630522 0.204546 0.0437374 -0.259358 -0.440732 -0.224458 -0.0215512 0.261149 0.0637966 -0.134567 -0.14517 -0.177067 -0.261504 -0.119545 -0.304442 0.0783975 -0.45303 -0.304529 0.278019 -0.0587127 -0.0824016 0.358716 -0.472979 0.000709524 0.0264172 0.0965978 0.557664 0.276525 -0.0565807 -0.0508492 -0.0368925 0.0733712 -0.0798961 -0.0756533 0.163207 0.10097
34 0.0275642 0.10382 -0.023358 -0.0320454 -0.154996 -0.0622644 0.0821144 -0.217053 0.0340011 0.00232362 0.0600702 -0.00166582 0.0440324 -0.143797 -0.0187092 -0.106738 0.125421 -0.105211 -0.0594306 -0.159111 -0.169776 0.0441135 0.234563 -0.126847 0.112078 -0.0640825 -0.119227 -0.0048719 -0.0790017 -0.0566006 -0.0948192 0.1569 -0.00746993 -0.176603 -0.0674323 -0.199668 -0.165413 0.051847 0.213946 0.0253222 -0.0237876 0.102519 -0.164966 -0.00422619 0.111304 0.263619 0.168447 0.104058 -0.0409982 -0.105586 -0.0907972 -0.0285829 -0.0924553 -0.0283959 0.38888 0.101541 -0.111482 -0.160262 -0.0300169 0.2503 0.156596 -0.112645 0.195739 -0.308694 0.146287 -0.155154 -0.173698 0.053556 -0.158911 -0.312091 -0.224377 0.170084 0.0420358 0.292194 0.00346867 0.205255 0.19782 -0.000326172 0.202733 0.109468 0.209613 -0.223311 0.200878 0.0761576 -0.00631759 -0.021012 0.421195 0.358497 0.225885 -0.220546 -0.270858 0.562006 0.228528 0.244771 0.0785908 -0.236505 -0.212453 -0.10739 0.120211 0.204875 -0.0326506 -0.101196 -0.126462 -0.166247 -0.172836 -0.0735276 -0.358554 0.070629 -0.385026 -0.329029 0.127326 -0.0770417 0.0173145 0.290397 -0.20826 0.115507 0.315428 0.0986863 0.32756 0.336021 0.0723172 -0.151644 -0.0194535 0.0797401 -0.339168 -0.148307 -0.0303301 0.115995
21 0.0381372 0.201134 -0.0494161 -0.0721884 -0.202664 0.0801794 -0.0567188 -0.235547 -0.10157 0.11599 0.0734881 -0.0631314 0.0799029 -0.349065 -0.131012 -0.0522321 -0.0084711 0.0714826 -0.0262683 -0.0932947 -0.263431 0.102068 0.220919 -0.249336 0.106415 -0.0143622 -0.0918548 -0.120528 -0.107351 -0.289607 -0.0259706 0.328899 -0.0593752 -0.0599495 -0.0855449 -0.134702 -0.184923 0.0989927 0.180009 0.0644161 0.0160837 0.17661 -0.290107 -0.0436317 0.141994 0.290198 0.0819444 -0.0833193 -0.0389261 -0.261054 -0.187173 -0.0823163 0.0746417 0.0502222 0.336641 0.0897937 -0.0663855 -0.244036 -0.0390574 0.260502 0.00894929 -0.265193 0.248809 -0.3419 0.227752 -0.0840681 -0.299749 -0.0795726 -0.176472 -0.33378 -0.27921 0.0609147 -0.0435556 0.226849 -0.0370535 0.10541 0.170044 0.0450714 0.135139 0.179972 0.270089 -0.111419 0.179188 0.000984936 -0.0833268 0.00151959 0.0692653 0.12984 -0.0174562 0.0158518 -0.132668 0.332328 0.0579333 0.085542 -0.0088185 -0.111202 -0.18313 -0.0334422 0.0615639 0.165379 -0.0541374 -0.0612282 -0.0316771 -0.208438 -0.13776 -0.116105 -0.199032 0.0977455 -0.423847 -0.320569 0.217705 -0.0879197 0.00721465 0.203121 -0.461154 0.0587654 0.267665 -0.0228203 0.38449 0.337886 -0.061513 -0.0983957 -0.112399 0.0344398 -0.166356 -0.243413 -0.0192318 0.00680075
33 0.0274757 0.172235 -0.0404003 -0.147189 -0.332604 -0.0326847 0.0273108 -0.297375 -0.0610724 0.0369502 0.0382724 0.00663687 0.0147507 -0.172805 -0.0720975 -0.11293 0.0413499 -0.0752689 -0.0943761 -0.122017 -0.131546 0.0842102 0.244362 -0.135821 0.0825362 -0.0257839 -0.138891 -0.0400118 -0.0509225 -0.199703 -0.0455415 0.144286 -0.084933 -0.101503 -0.0590532 -0.164004 -0.113258 -0.023877 0.267134 0.0248154 0.0457666 0.172578 -0.200725 0.0626945 0.103013 0.330693 0.108887 0.0695427 -0.0133135 -0.202437 -0.104045 -0.0933242 -0.0318444 0.0391691 0.28145 0.154291 -0.126394 -0.149728 -0.0171432 0.181106 0.162195 -0.132127 0.212879 -0.356266 0.115564 -0.157878 -0.266184 0.00164118 -0.16521 -0.292263 -0.222879 0.0508844 0.0138273 0.193595 -0.0592887 0.175127 0.166054 0.0583887 0.123181 0.147277 0.212889 -0.191366 0.246092 -0.0156016 -0.130632 0.00591064 0.433518 0.243853 0.0849949 -0.107426 -0.138496 0.402401 0.0816054 0.0952037 0.00927692 -0.267187 -0.242913 -0.0774381 0.0800356 0.201858 -0.0677666 -0.0351951 -0.0259874 -0.137021 -0.152297 -0.14298 -0.406039 0.069106 -0.488017 -0.335933 0.194906 -0.111056 0.00814703 0.277885 -0.246428 0.0437475 0.373609 0.106564 0.352975 0.3472 0.0538702 -0.197935 -0.0316087 0.0408354 -0.295439 -0.182779 -0.0357089 0.101357
3 0.00130035 0.0550498 -0.0362343 -0.00720898 -0.133723 0.0215765 0.0871788 -0.188163 -0.155866 0.0455431 0.0726881 -0.16553 0.126566 -0.368106 -0.0613868 -0.0805151 0.15054 -0.0566855 -0.0505076 -0.0654599 -0.283919 0.196601 0.197209 -0.308182 0.264346 -0.0187522 -0.20488 -0.24292 -0.0855567 -0.102671 -0.0516555 0.243354 0.0323314 -0.0326281 -0.0158369 -0.129521 -0.178821 0.193721 0.134579 0.0604116 -0.0362261 0.147999 -0.214008 -0.0515426 0.127268 0.213242 0.148522 -0.0225286 -0.0296988 -0.103401 -0.119705 -0.149532 -0.062218 -0.0239201 0.330276 0.0651897 -0.0659229 -0.170226 0.0159042 0.262582 0.0474709 -0.192151 0.198426 -0.271412 0.15388 -0.0876801 -0.178072 -0.0256064 -0.119476 -0.15867 -0.17864 0.209892 0.112439 0.342093 0.149611 0.192026 0.208136 -0.0856744 0.260356 0.155592 0.305884 -0.316708 0.132938 0.00243223 0.0880612 -0.0576453 0.15197 0.224798 0.148956 -0.144689 -0.35767 0.440596 0.108004 0.173533 0.0701216 -0.109329 -0.0562519 -0.121605 0.115978 0.208098 0.0127735 -0.175898 -0.146224 -0.138583 -0.186237 -0.190914 -0.136091 0.0699871 -0.321608 -0.222251 0.124343 -0.039033 0.114378 0.269662 -0.4069 0.0988496 0.171536 0.0500501 0.214137 0.161235 -0.0486632 -0.00455616 -0.087943 0.0216415 -0.139566 -0.102488 -0.0698127 0.0188115
9 0.00471353 0.361266 -0.0820529 -0.0563138 -0.0916786 0.124897 -0.0245294 -0.319741 -0.25825 0.124511 0.0883616 -0.0289366 0.051691 -0.351699 -0.0883831 -0.0190178 0.0696979 -0.041558 0.061331 0.00579617 -0.177246 0.13522 0.229088 -0.228872 0.13151 0.0323398 -0.170341 -0.189344 -0.0472764 -0.257031 -0.0209028 0.305487 -0.156129 0.0151684 0.054841 -0.124855 -0.181039 0.119258 0.16508 0.0559878 0.0910951 0.21909 -0.204551 -0.00161061 0.222398 0.289854 0.0861801 -0.0562775 -0.0192805 -0.209494 -0.231206 -0.1651 0.0645775 0.100768 0.218971 0.101888 -0.00243866 -0.22843 -0.0437941 0.234688 0.00832157 -0.255252 0.203384 -0.346982 0.110236 -0.198507 -0.238851 -0.0384806 -0.197379 -0.151078 -0.285377 0.0134429 -0.0144578 0.173618 0.0348235 0.142982 0.0723994 -0.0957688 0.105197 0.133004 0.249918 -0.201671 0.104124 -0.0642978 -0.0340916 -0.102483 0.0580868 -0.0243781 -0.104561 -0.0515714 -0.0612012 0.293423 -0.0416985 0.0459643 -0.055591 -0.049778 -0.131024 -0.0194295 -0.023135 0.121771 -0.00823435 -0.0458672 0.0322178 -0.201858 -0.249746 -0.148709 -0.262955 -0.0382696 -0.487662 -0.400168 0.178152 -0.108339 0.104193 0.17577 -0.274686 -0.0307795 0.161965 -0.0616298 0.250095 0.223413 -0.157068 -0.0575246 -0.129951 0.0791107 -0.192047 -0.19176 -0.0609743 0.000206753
28 -0.0341002 0.182019 -0.0330478 -0.261534 -0.41478 -0.0939465 0.0539597 -0.386512 -0.155059 0.0208994 0.0202981 0.0389559 -0.0562513 -0.196223 -0.118889 -0.151739 0.00806895 -0.134014 -0.144454 -0.0901747 -0.0659882 0.103561 0.26611 -0.0546627 -0.00629806 -0.00817928 -0.18449 -8.67714e-05 0.020479 -0.23527 -0.0299035 0.0629391 -0.177926 -0.0389877 0.0121301 -0.145377 -0.0554178 -0.107763 0.348719 0.0265118 0.119191 0.24031 -0.179584 0.183896 0.0683563 0.386499 0.0790095 0.140589 0.0237951 -0.25089 -0.096694 -0.170267 -0.0686187 0.107148 0.19507 0.255169 -0.184316 -0.0806477 -0.000136277 0.114422 0.264205 -0.0921962 0.200496 -0.391151 0.0148962 -0.205866 -0.290726 0.0222039 -0.179551 -0.218566 -0.142448 -0.0533993 0.0531065 0.0557354 -0.1005 0.135026 0.11252 0.0887159 0.0412779 0.137491 0.173709 -0.229191 0.29535 -0.102081 -0.216844 -0.0563639 0.618709 0.206796 0.0388647 -0.104886 -0.0880041 0.308204 -0.0506399 -0.0176036 -0.0414692 -0.3723 -0.252533 -0.0629383 0.0401586 0.197902 -0.0537508 -0.0025761 0.0677807 -0.0845153 -0.177907 -0.219545 -0.536865 0.0351574 -0.592867 -0.375009 0.196439 -0.143682 0.0254279 0.326783 -0.0883425 -0.0172942 0.434016 0.157041 0.250904 0.255423 0.0686687 -0.242757 0.0114487 0.025391 -0.283476 -0.160479 -0.0841665 0.110618
25 -0.0142103 0.0350625 0.00207307 -0.148963 -0.47315 -0.00277296 0.232966 -0.408061 -0.109839 -0.0679179 0.0113034 -0.0654157 0.10276 -0.268403 0.0690345 -0.213653 0.155564 -0.206957 -0.277968 -0.0654897 -0.0747502 0.162082 0.288703 -0.16646 0.248575 -0.00851111 -0.272163 -0.200856 -0.0407502 -0.115977 -0.0744338 -0.00592393 -0.0176845 -0.127415 -0.0745227 -0.160772 -0.113031 -0.067192 0.33932 -0.0290703 -0.0175638 0.151929 -0.127779 0.0596199 -0.00303533 0.178483 0.110506 0.231053 0.0138877 0.00834107 0.0566406 -0.151765 -0.133324 -0.0883931 0.207571 0.163122 -0.300913 0.0369928 0.126358 0.142703 0.295425 -0.0846793 0.17101 -0.308989 0.040882 -0.100587 -0.400337 0.0230534 -0.173466 -0.142378 -0.0459468 0.107646 0.211189 0.276547 0.0632218 0.359108 0.341198 0.0540062 0.222271 0.18573 0.260866 -0.433243 0.294666 -0.115953 -0.02958 0.0902596 0.652551 0.389053 0.202477 -0.150444 -0.149975 0.479103 -0.0022323 0.138963 0.0130909 -0.389811 -0.227189 -0.218375 0.140019 0.379303 -0.0590307 -0.117819 -0.191399 -0.0315157 -0.247072 -0.305114 -0.403709 -0.0153586 -0.495968 -0.141573 0.230225 -0.0264881 0.0952403 0.509784 -0.389292 -0.100496 0.337901 0.34753 0.380783 0.161873 -0.0419197 -0.123628 -0.00653214 -0.0596639 -0.224612 0.0322621 -0.0182153 0.150431
22 0.0403051 0.0683994 -0.12351 -0.152022 -0.177682 -0.160652 0.0288433 -0.143931 -0.372006 0.118089 0.00704758 -0.341068 0.120561 -0.441905 -0.264885 -0.0151122 0.295906 -0.155103 0.0102201 -0.0460058 -0.321432 0.37001 0.0183902 -0.286333 0.30563 -0.0243307 -0.234678 -0.327372 -0.0216976 0.00956085 -0.0085771 0.246782 0.0911736 0.133955 0.13644 -0.0876755 -0.0160738 0.272759 0.0663323 0.137307 -0.0411978 0.174266 -0.197947 -0.00119852 0.365992 0.496803 0.297913 -0.251899 0.00487712 -0.237016 -0.210015 -0.290034 -0.1628 0.0537956 0.354573 0.0495111 0.276541 -0.340429 -0.0249124 0.174965 -0.0914401 -0.105446 0.193277 -0.228058 0.0572199 -0.115982 0.206725 -0.029577 0.0194426 -0.0601846 -0.324176 0.270218 0.088644 0.413673 0.266724 0.0372003 -0.0360785 -0.368459 0.267631 0.0269694 0.30452 -0.342346 -0.0259371 0.0926377 0.138434 -0.175988 0.147932 0.168569 0.21188 -0.381688 -0.65369 0.303432 0.191702 0.0630819 0.129863 -0.00862646 0.0700753 0.010453 0.0266511 0.0387084 0.0482969 -0.112933 0.00209986 -0.0938659 -0.12246 -0.112816 -0.00976576 0.192265 -0.221934 -0.357171 0.010453 -0.13173 0.157662 -0.0511287 -0.181588 0.394812 0.383338 -0.212746 -0.032673 0.215768 0.118307 0.0619738 -0.0444595 0.131432 -0.192908 -0.159524 -0.180119 0.0404832
4 0.012169 0.112998 -0.0105903 -0.202017 -0.115267 -0.146409 0.00667251 -0.236136 -0.331757 0.158772 0.106842 -0.269808 0.0472447 -0.517378 -0.323382 -0.0575128 0.234105 -0.126432 0.00749012 -0.0488767 -0.319086 0.307995 0.202822 -0.239883 0.145546 -0.00163194 -0.25065 -0.220797 -0.0179834 -0.155349 0.0182464 0.245116 -0.0537164 0.154364 0.0745953 -0.0665252 -0.0810194 0.190533 0.150141 0.105607 0.104433 0.164217 -0.206118 0.0900771 0.195402 0.402773 0.132466 -0.145402 0.00476982 -0.333497 -0.183498 -0.278645 -0.113251 0.150055 0.273314 0.112531 0.0470028 -0.251344 -0.0243934 0.236705 0.0257701 -0.131382 0.228579 -0.358323 0.0327865 -0.164159 0.00299381 -0.0587371 -0.0195432 -0.130899 -0.234694 0.149562 0.0821698 0.194387 0.149733 0.0179858 -0.0379755 -0.216307 0.122787 0.0488153 0.261682 -0.232065 0.0782171 -0.0182102 0.00258817 -0.190409 0.146188 0.0923926 0.102435 -0.180018 -0.395066 0.286224 0.0262816 -0.00159693 0.0276863 -0.122418 -0.0391897 -0.00341039 0.0132549 0.0454223 0.0106244 -0.116779 0.0563897 -0.0549373 -0.123876 -0.237277 -0.141172 0.129686 -0.386915 -0.405094 0.0972931 -0.132855 0.100642 0.0934669 -0.16695 0.215381 0.302157 -0.122008 -0.0174574 0.161586 0.0480519 -0.0612833 -0.00324659 0.127173 -0.121849 -0.167633 -0.133335 -0.0134613
32 0.0500781 0.095376 -0.0472568 -0.064458 -0.479139 0.0697389 0.159895 -0.400413 -0.117175 -0.0110437 -0.0280734 -0.108853 0.16871 -0.35546 0.0397907 -0.158818 0.184182 -0.162253 -0.194659 -0.0598988 -0.0488291 0.142928 0.161558 -0.232448 0.323532 -0.0149926 -0.254052 -0.289316 -0.0889818 -0.136799 -0.0870518 0.0890438 0.073673 -0.0901731 -0.0844615 -0.134584 -0.102068 -0.0486039 0.195729 0.00277861 -0.092735 0.183669 -0.162781 -0.0215524 0.115942 0.2305 0.123439 0.0986116 0.00453159 0.00330071 0.0187562 -0.114274 -0.0385341 -0.111584 0.230117 0.0765976 -0.142276 -0.073642 0.0772499 0.135964 0.113051 -0.135544 0.1713 -0.27131 0.148243 -0.0711236 -0.361782 -0.0324184 -0.117749 -0.166978 -0.194465 0.107273 0.105636 0.337719 0.07042 0.288009 0.324181 -0.0135431 0.20645 0.186143 0.270808 -0.392922 0.200211 -0.0322303 -0.0184384 0.134643 0.29839 0.312158 0.138511 -0.15765 -0.125073 0.372851 0.0517451 0.152186 0.0445946 -0.228083 -0.237678 -0.20319 0.0612289 0.30818 -0.0120768 -0.111744 -0.184173 -0.0910381 -0.235071 -0.185736 -0.234038 0.052737 -0.394003 -0.144893 0.238483 -0.026158 0.0699751 0.339498 -0.512064 -0.00474879 0.203609 0.167985 0.443759 0.215541 -0.0520038 -0.0291452 -0.0663491 -0.0111982 -0.155478 -0.00575244 0.046507 0.131712
31 0.0839944 -0.0509283 -0.0191135 -0.0756904 -0.250728 -0.0764954 -0.0355438 -0.0856145 -0.0175513 0.0942057 0.0172907 -0.198722 0.126511 -0.362715 -0.205687 -0.0647804 0.0838228 0.050004 -0.0758655 -0.148611 -0.287217 0.149988 0.0877953 -0.238053 0.153513 -0.0609777 -0.0699952 -0.136922 -0.122827 -0.136125 -0.0295619 0.250344 0.127306 -0.0331549 -0.120003 -0.0916786 -0.0916802 0.121964 0.0760253 0.0828086 -0.0897697 0.0875293 -0.264758 -0.0657301 0.118306 0.308627 0.137708 -0.149771 -0.0354757 -0.242608 -0.0906511 -0.0442643 -0.0117039 -0.0133667 0.387348 0.0261266 0.012699 -0.243761 -0.0199568 0.205925 -0.0441916 -0.155094 0.21705 -0.23613 0.240135 0.0257178 -0.112359 -0.0975661 -0.0171429 -0.345446 -0.254018 0.176813 -0.0213878 0.313963 0.011845 0.0168869 0.157531 -0.000983842 0.175695 0.124892 0.222607 -0.0858609 0.12587 0.119568 -0.0301759 0.0563977 0.0410735 0.281437 0.171836 -0.0923121 -0.358123 0.305405 0.206635 0.113609 0.10524 -0.095897 -0.126421 -0.0462615 0.100458 0.12328 -0.0325805 -0.0919634 -0.0896313 -0.123034 -0.00657651 -0.0562829 0.00283193 0.25947 -0.173198 -0.198546 0.138227 -0.0724045 -0.0474256 0.0800913 -0.454237 0.274454 0.308144 -0.0655673 0.292767 0.327185 0.109231 -0.0268207 -0.0375499 0.0394741 -0.0894729 -0.187595 0.0041642 0.027732
24 0.0744245 0.0560722 -0.0812898 -0.179209 -0.434778 -0.0911835 -0.0596879 -0.147942 0.0732397 0.0465857 0.0133716 -0.0158482 0.0431087 -0.059244 -0.105741 -0.100391 -0.0547814 0.0714081 -0.130448 -0.230415 -0.227024 0.0741034 0.180171 -0.147211 0.0681347 -0.0791054 -0.0250114 0.0176759 -0.103018 -0.182467 -0.0356712 0.189725 0.00578565 -0.186723 -0.15155 -0.182558 -0.0735113 0.0057646 0.270705 0.0462684 -0.0315257 0.13367 -0.299715 0.00480988 0.132711 0.416524 0.17846 -0.0441432 -0.0378644 -0.311678 -0.152773 -0.0361273 -0.032831 0.00658967 0.4508 0.144839 -0.0552546 -0.248137 -0.0415859 0.16788 0.0936709 -0.137531 0.269688 -0.31718 0.22895 -0.0576478 -0.189552 -0.0240222 -0.144041 -0.46041 -0.303735 0.137432 -0.0378514 0.317091 -0.0941798 0.132997 0.186772 0.12682 0.207833 0.164653 0.251244 -0.0667151 0.261632 0.0818251 -0.146671 0.0755219 0.498151 0.361065 0.153573 -0.109803 -0.316081 0.426183 0.247994 0.120373 0.0636545 -0.260149 -0.218676 -0.0120639 0.168402 0.203395 -0.138663 -0.00389135 -0.0448126 -0.164436 -0.017731 -0.0349057 -0.332377 0.221537 -0.386529 -0.297529 0.195937 -0.116938 -0.0373017 0.205654 -0.339496 0.207216 0.595697 0.0513328 0.424874 0.522108 0.182605 -0.245406 -0.0432088 0.0224934 -0.382831 -0.290262 -0.0679681 0.126351
30 0.0600469 0.0313902 0.013707 -0.177908 -0.430185 -0.0928217 -0.0382925 -0.25455 -0.012719 0.106473 0.0413786 -0.117928 0.0612006 -0.415081 -0.259802 -0.141224 0.00969864 0.0390615 -0.129045 -0.187097 -0.241899 0.0905409 0.217719 -0.20179 0.0501509 -0.0631482 -0.123242 -0.0487236 -0.119482 -0.316712 -0.0396421 0.241037 0.00943324 -0.0380647 -0.170773 -0.114191 -0.107769 -0.0205984 0.205809 0.0787053 0.00232011 0.191623 -0.335614 0.0449644 0.0416509 0.387155 0.046168 -0.0356489 -0.0223576 -0.351896 -0.0930212 -0.0646513 0.0233244 0.0663069 0.373223 0.145845 -0.155401 -0.203524 -0.0397152 0.227756 0.0852495 -0.19395 0.282015 -0.402229 0.259206 -0.052641 -0.336722 -0.105559 -0.0868827 -0.467995 -0.253759 0.0469914 -0.0448347 0.176147 -0.13594 0.0143487 0.206789 0.158991 0.0637274 0.186053 0.229057 -0.0727254 0.281481 0.0456617 -0.223499 0.0588562 0.191798 0.288771 0.0946624 0.00328601 -0.1848 0.317837 0.0969894 0.060178 0.038276 -0.268895 -0.29977 -0.0822083 0.0860311 0.179132 -0.0434768 -0.0844774 -0.0274177 -0.129661 -0.034462 -0.145621 -0.229307 0.259214 -0.406315 -0.306925 0.252735 -0.105052 -0.0971817 0.233274 -0.467454 0.16959 0.353804 0.0206857 0.419517 0.386668 0.113362 -0.174995 -0.0147384 0.0386391 -0.114796 -0.248825 0.0321718 0.0430159
26 0.0548999 -0.0525882 -0.00991087 -0.256872 -0.714937 -0.138669 0.134161 -0.343666 0.0477945 -0.0538714 -0.04634 -0.0475066 0.0743839 -0.163643 -0.0265785 -0.234689 0.0817386 -0.146487 -0.329298 -0.193105 -0.0402932 0.105896 0.212378 -0.0833333 0.15337 -0.0710507 -0.17865 -0.0595323 -0.0613028 -0.140093 -0.0708422 -0.0395207 0.0484775 -0.180076 -0.168786 -0.170488 -0.0159366 -0.185917 0.361107 -0.0122579 -0.0550104 0.147652 -0.202242 0.0981598 0.00974178 0.35277 0.136324 0.173031 0.00864727 -0.148356 0.0683077 -0.0764823 -0.134145 -0.0755209 0.306973 0.188099 -0.249174 -0.0417832 0.0828975 0.0803777 0.280585 -0.0248228 0.227195 -0.33681 0.11841 -0.0532042 -0.35459 -0.00106111 -0.104352 -0.347996 -0.152493 0.0939297 0.105934 0.288736 -0.0695479 0.258252 0.319845 0.15696 0.1794 0.175414 0.217988 -0.273387 0.352525 -0.0083037 -0.182126 0.186658 0.769224 0.526919 0.273456 -0.183075 -0.212731 0.433229 0.140526 0.11178 0.0600295 -0.471521 -0.330205 -0.164448 0.157336 0.335389 -0.117738 -0.0438197 -0.137537 -0.0333225 -0.0965411 -0.188143 -0.429644 0.175307 -0.46305 -0.175591 0.266367 -0.0842463 -0.0320115 0.405009 -0.369445 0.0895793 0.584936 0.284888 0.493078 0.388888 0.180592 -0.241592 0.0434709 -0.0333 -0.319117 -0.0725753 0.00984857 0.215811
27 0.0539444 0.113313 0.0220359 0.0747769 -0.100799 -0.0591061 0.061873 -0.258214 0.152928 0.0384969 0.0676145 0.010862 0.0703152 -0.3475 -0.112538 -0.129266 0.160597 -0.100315 -0.00461206 -0.210477 -0.154734 -0.0416354 0.235125 -0.145918 0.0819742 -0.0984964 -0.13045 0.0465931 -0.146646 -0.132542 -0.163257 0.254449 0.0378836 -0.18727 -0.132674 -0.2171 -0.244716 0.0133456 0.131469 0.0624837 -0.0630602 0.150642 -0.226451 -0.0329967 0.102548 0.299024 0.117471 0.120064 -0.0614014 -0.134094 -0.0677122 0.0712225 -0.0168289 -0.0257307 0.465371 0.0764743 -0.151417 -0.207597 -0.0950735 0.347215 0.122412 -0.174409 0.226051 -0.401918 0.271883 -0.193109 -0.289056 0.0366408 -0.149093 -0.472885 -0.292608 0.133515 -0.0493882 0.243674 -0.107006 0.10033 0.258115 0.0558888 0.101746 0.117312 0.144402 -0.156188 0.215207 0.170674 -0.0834997 -0.0161163 0.153656 0.419706 0.239857 -0.212022 -0.174844 0.583442 0.277091 0.327875 0.120284 -0.230172 -0.381637 -0.172362 0.0540826 0.183361 0.0715423 -0.172866 -0.149949 -0.234196 -0.200757 -0.0103682 -0.324363 0.144068 -0.364449 -0.416381 0.159708 -0.0798178 -0.102892 0.292405 -0.265798 0.180276 0.109439 0.0175195 0.45585 0.380151 0.0857178 -0.108753 -0.00981457 0.158842 -0.238506 -0.196054 0.096209 0.100485
2 -0.0231713 0.364708 -0.203352 -0.0373767 -0.0197152 -0.000239711 -0.0110787 -0.32786 -0.336849 0.0863456 -0.0265674 -0.050781 -0.00178608 -0.374481 -0.199466 0.0408571 0.112626 -0.113815 0.0979765 0.0194297 -0.230793 0.17989 0.0370101 -0.211552 0.112166 -0.00731129 -0.158695 -0.149492 0.00871653 -0.103915 -0.0888132 0.376432 -0.10934 0.0718986 0.246722 -0.163913 -0.132443 0.227046 0.109343 0.164813 -0.00243653 0.309339 -0.199724 0.0110552 0.397999 0.528239 0.273832 -0.128506 -0.013133 -0.203167 -0.308263 -0.198921 -0.0313524 0.105171 0.356069 0.135716 0.233381 -0.351975 -0.105104 0.230339 -0.0169024 -0.243879 0.162119 -0.296432 0.0867576 -0.247836 0.0420894 0.0374318 -0.206087 -0.100603 -0.342572 0.0415671 -0.0355222 0.231467 0.0465253 -0.0111119 -0.0289591 -0.256735 0.138571 0.0950483 0.210834 -0.363316 0.0225575 0.0736192 0.0460196 -0.27605 0.0835489 0.0411358 0.0184494 -0.310489 -0.405052 0.323003 0.0955773 0.0659549 0.0694517 -0.00144602 -0.0587918 0.0422125 -0.0856163 0.0465992 0.140526 -0.0541703 0.0840023 -0.310957 -0.326453 -0.0499712 -0.282628 0.0495524 -0.44687 -0.570137 0.0167386 -0.197193 0.104653 0.00531691 -0.0705478 0.234643 0.279203 -0.206181 0.0944288 0.240087 -0.0311839 0.0860562 -0.127696 0.136974 -0.227828 -0.265614 -0.148815 0.0234072
8 -0.112574 0.226663 -0.0615063 -0.0749473 0.209404 -0.0191699 0.117067 -0.23846 -0.474493 0.06899 0.138402 -0.178395 0.00528242 -0.384944 -0.130107 -0.00784042 0.215777 -0.170398 0.0649279 0.0756776 -0.384992 0.328346 0.255517 -0.275013 0.198551 0.0413932 -0.272873 -0.247308 0.0444853 -0.0409197 -0.0130748 0.264002 -0.172058 0.11782 0.244963 -0.128274 -0.19384 0.364001 0.194583 0.101376 0.126459 0.183988 -0.129839 0.047783 0.21982 0.251169 0.195931 -0.0426425 -0.00114643 -0.129639 -0.250776 -0.331419 -0.171692 0.119201 0.235592 0.141812 0.0238748 -0.175588 0.00469238 0.292869 0.107077 -0.191103 0.147434 -0.272948 -0.0861858 -0.234984 0.0512017 0.0572674 -0.183752 0.101987 -0.0934453 0.180284 0.211344 0.21201 0.273572 0.160197 -0.0209812 -0.299355 0.243283 0.0676256 0.310077 -0.455755 0.0379692 -0.109237 0.198139 -0.357543 0.264918 -0.00234852 0.070177 -0.233885 -0.460127 0.427968 -0.0488866 0.0748051 0.00560704 -0.0571549 0.131487 -0.00873221 0.0476952 0.107074 0.0734924 -0.165094 -0.00225319 -0.134444 -0.321977 -0.311683 -0.253697 -0.103524 -0.462031 -0.426945 -0.0158696 -0.0990856 0.27232 0.224951 -0.0264433 0.0399597 0.203071 -0.0103481 -0.176596 -0.0456918 -0.149028 0.0357946 -0.0756474 0.07218 -0.18039 -0.101094 -0.254889 -0.0545424
10 0.0283382 0.306341 -0.0113097 0.0260756 -0.206746 0.191154 0.0750173 -0.440202 -0.0463359 0.0456087 0.0783399 0.0513332 0.103287 -0.387442 0.0276022 -0.113007 0.0883151 -0.0753382 -0.0638885 -0.0541538 -0.104332 0.00738295 0.320635 -0.216995 0.15988 0.00583952 -0.179799 -0.140151 -0.115009 -0.287735 -0.106562 0.268751 -0.0954696 -0.158348 -0.10489 -0.190185 -0.281928 -0.00896982 0.235187 0.00219241 0.00596432 0.193638 -0.213892 -0.0493371 0.0897777 0.175859 0.0437808 0.142231 -0.0397792 -0.0674292 -0.0865203 -0.0256465 0.0823187 -0.0287453 0.283658 0.0922641 -0.237551 -0.120951 -0.0024405 0.299729 0.132997 -0.277664 0.216749 -0.408604 0.214682 -0.175272 -0.535059 -0.0234732 -0.262065 -0.30645 -0.244123 0.014492 0.00801165 0.212208 -0.0647539 0.272459 0.308942 0.0806386 0.111267 0.213978 0.237839 -0.248663 0.235959 -0.0447123 -0.0712731 0.0602674 0.160338 0.208732 -0.00514766 -0.0180358 0.094561 0.478549 0.00493504 0.203428 -0.030297 -0.208591 -0.345788 -0.166826 0.0306104 0.291049 -0.0173484 -0.102097 -0.135703 -0.233417 -0.324978 -0.162994 -0.364754 -0.056097 -0.552319 -0.329919 0.290226 -0.0496831 0.0156106 0.421643 -0.493351 -0.136529 0.0858473 0.136722 0.565551 0.286568 -0.194343 -0.0870947 -0.112754 0.0401791 -0.190673 -0.121018 0.0827718 0.0738148
16 0.0267043 0.0191595 -0.0157002 -0.0896951 -0.28544 0.112242 0.0435997 -0.19917 -0.0933903 0.0411353 0.0486102 -0.142355 0.143481 -0.319191 -0.0235478 -0.0873107 -0.0171562 0.0998793 -0.198359 -0.0695998 -0.347335 0.171301 0.250208 -0.312035 0.220297 0.00185141 -0.0920457 -0.22497 -0.114219 -0.229143 -0.01388 0.254734 0.0204831 -0.117012 -0.152222 -0.122168 -0.192431 0.144209 0.247121 0.0256595 -0.049971 0.0918915 -0.277812 -0.0980692 0.011643 0.129417 0.084317 -0.0357604 -0.0427777 -0.14221 -0.0753825 -0.0950321 0.0104734 -0.0638711 0.327366 0.0835107 -0.200649 -0.115021 0.0866527 0.246255 0.0885581 -0.259824 0.227348 -0.259079 0.220127 0.0618065 -0.388366 -0.106154 -0.192118 -0.272228 -0.119432 0.150831 0.105625 0.33676 0.0469116 0.239562 0.32852 0.115493 0.278965 0.260107 0.338685 -0.231642 0.236865 -0.066626 0.0223141 0.112653 0.242609 0.257108 0.0709414 0.0710047 -0.232172 0.414594 0.0428449 0.109099 0.0108287 -0.181576 -0.0986094 -0.0896252 0.196704 0.320856 -0.112233 -0.102753 -0.194992 -0.149043 -0.144028 -0.251309 -0.127682 0.0902953 -0.38766 -0.111493 0.25159 -0.0239892 0.0640142 0.362686 -0.718784 -0.010666 0.371814 0.18995 0.435525 0.252202 -0.124439 -0.0403909 -0.122813 -0.119409 -0.0967569 -0.124897 -0.0292932 0.00758808
29 -0.00989435 0.0526216 0.0411001 -0.0670891 -0.414546 0.00334971 0.286985 -0.498319 -0.116911 -0.0731622 -0.0115605 -0.0884742 0.118892 -0.453145 0.0259853 -0.226199 0.289037 -0.325796 -0.239497 -0.0192484 0.0204834 0.126439 0.228136 -0.14839 0.268758 -0.0122277 -0.333911 -0.237806 -0.0326085 -0.088651 -0.124809 -0.00304295 0.0255213 -0.0612134 -0.0272692 -0.141415 -0.136895 -0.10115 0.24248 -0.00871798 -0.0479372 0.190579 -0.0767146 0.0637699 0.0159978 0.169326 0.0806682 0.278191 0.0283536 0.0962158 0.127066 -0.134782 -0.129263 -0.101441 0.153671 0.128759 -0.292592 0.0611958 0.108681 0.16136 0.275228 -0.0762129 0.131585 -0.329901 0.0373245 -0.145658 -0.422919 0.0330639 -0.121975 -0.0809218 -0.0381665 0.0658343 0.202754 0.216519 0.0598427 0.294873 0.345432 -0.0161505 0.133536 0.154801 0.182431 -0.500502 0.238187 -0.0791967 -0.0221258 0.0675592 0.437061 0.391926 0.219668 -0.217933 -0.0739762 0.434192 -0.0247169 0.182796 0.043569 -0.360887 -0.303694 -0.286738 0.0276197 0.342863 0.0656337 -0.174153 -0.203586 -0.0371194 -0.326505 -0.281555 -0.351464 -0.0238649 -0.450202 -0.165717 0.212411 -0.0237989 0.0585355 0.496342 -0.364851 -0.0769197 0.106837 0.289488 0.376663 0.0629679 -0.0638188 -0.0159343 0.0201812 5.53363e-05 -0.0830383 0.110589 0.0746091 0.148248
13 -0.0143157 0.221173 -0.0291054 -0.0404139 -0.0823381 -0.011712 0.0562463 -0.355794 -0.256035 0.0927445 0.0411653 -0.10666 0.043579 -0.527008 -0.211518 -0.0642078 0.185207 -0.155135 0.0289113 -0.00120687 -0.153559 0.149693 0.145427 -0.187954 0.111405 -0.000182611 -0.243389 -0.166413 -0.0258575 -0.173421 -0.0727338 0.257477 -0.0766956 0.10656 0.100026 -0.0962855 -0.145913 0.0918082 0.0987169 0.106444 0.043607 0.255135 -0.179458 0.0553111 0.192919 0.342919 0.0934587 -0.00644309 0.00619985 -0.158862 -0.140593 -0.173885 -0.017793 0.093877 0.221532 0.114302 -0.0145159 -0.18714 -0.0518992 0.238071 0.0474732 -0.190797 0.164325 -0.351955 0.0860227 -0.208241 -0.1745 -0.0137091 -0.106599 -0.126043 -0.216299 0.0143752 0.023072 0.115608 0.0272674 0.0235753 0.071912 -0.136172 0.033358 0.0982906 0.18252 -0.302965 0.0967106 0.0040285 -0.047437 -0.165195 -0.00482823 0.0787026 0.0340736 -0.169359 -0.171456 0.273008 -0.0238557 0.0666134 0.0299684 -0.10605 -0.179593 -0.0948066 -0.0769805 0.0967858 0.132991 -0.131632 0.0230328 -0.154407 -0.258706 -0.159818 -0.216602 0.0447615 -0.403724 -0.412585 0.110117 -0.110506 0.0453876 0.15103 -0.184666 0.0942894 0.0386071 -0.0863317 0.138447 0.106376 -0.0594891 0.0336122 -0.042378 0.116751 -0.0403599 -0.121647 -0.0191064 -0.000735274
20 -0.00903606 0.127677 0.0134409 -0.0862536 -0.158813 -0.0661817 0.0635322 -0.375288 -0.292639 0.128641 0.0383562 -0.222497 0.0685567 -0.732766 -0.339876 -0.0946272 0.218718 -0.155236 -0.00787963 -0.00323022 -0.20005 0.198431 0.14189 -0.242517 0.134281 -0.0085316 -0.290587 -0.229696 -0.0400655 -0.238395 -0.0687718 0.291638 -0.0202162 0.185535 0.0768906 -0.0638553 -0.136981 0.0957209 0.065253 0.136807 0.0283326 0.281795 -0.2282 0.0787323 0.154333 0.382613 0.0659 -0.0506591 0.0138642 -0.227009 -0.0981615 -0.203512 -0.019873 0.111647 0.234393 0.11464 -0.0408875 -0.192972 -0.0391439 0.26224 0.0347704 -0.20775 0.200577 -0.39961 0.126112 -0.16442 -0.209392 -0.0771898 -0.0452862 -0.162033 -0.202168 0.0136764 0.03403 0.106009 0.0250117 -0.0534693 0.0903877 -0.118439 0.00198966 0.118199 0.19208 -0.318567 0.119604 0.00794448 -0.0851831 -0.154937 -0.124436 0.111379 0.0610843 -0.144369 -0.229861 0.23884 -0.0468999 0.0288899 0.0508102 -0.128861 -0.198713 -0.119993 -0.0919731 0.0960059 0.164314 -0.175434 0.018263 -0.117829 -0.218124 -0.223457 -0.123213 0.147191 -0.384031 -0.392632 0.133541 -0.114134 0.00654224 0.145146 -0.305738 0.160268 0.00327772 -0.109457 0.124313 0.0681721 -0.0290268 0.0702973 -0.0161921 0.116364 0.101885 -0.121748 0.0166268 -0.0336938
14 -0.0234976 0.216389 -0.0796624 -0.0187077 0.0702001 0.0228703 0.0192239 -0.171713 -0.252426 0.0825597 0.0915287 -0.0991881 0.0435075 -0.268997 -0.0874344 0.00118504 0.127328 -0.058532 0.0734579 -0.00660423 -0.276049 0.18299 0.170049 -0.22919 0.157502 0.0033818 -0.155093 -0.169195 -0.0294439 -0.0809125 -0.0298544 0.275953 -0.0835767 0.0146995 0.105743 -0.128727 -0.16459 0.24321 0.123283 0.0741811 0.0474129 0.142821 -0.161543 -0.0231759 0.224302 0.255896 0.167746 -0.0809495 -0.0251795 -0.148074 -0.225735 -0.174714 -0.0521362 0.0635875 0.277182 0.0713021 0.0664753 -0.225396 -0.0399683 0.244356 0.00725581 -0.184709 0.157061 -0.236615 0.0594347 -0.168649 -0.0167117 0.0147317 -0.145022 -0.0804323 -0.211677 0.141712 0.0548818 0.235576 0.143115 0.115426 0.0262152 -0.1869 0.189968 0.0752293 0.244855 -0.250816 0.0372471 -0.00643171 0.100412 -0.189484 0.120393 0.0431926 0.0408499 -0.171171 -0.308263 0.356609 0.0684635 0.10883 0.0198704 -0.0112661 0.0115932 -0.00299854 0.03631 0.087124 0.0277531 -0.100637 -0.0142149 -0.165324 -0.213605 -0.133057 -0.17971 -0.0161389 -0.331723 -0.34982 0.0430471 -0.0881265 0.1463 0.119469 -0.129272 0.0879558 0.184183 -0.0731829 0.0448238 0.143756 -0.0787594 -0.00509018 -0.0950484 0.0827445 -0.201273 -0.16116 -0.134864 -0.0103356
12 0.0787511 0.116252 -0.152567 -0.229388 -0.465432 -0.15309 0.241589 -0.441061 -0.655982 0.0794422 -0.0684704 -0.533446 0.24805 -0.721042 -0.215408 -0.0877515 0.653715 -0.489928 -0.126457 0.0796601 -0.171644 0.578828 -0.0254294 -0.360698 0.616427 0.0249147 -0.502446 -0.70157 0.0241269 0.1152 -0.0315063 0.100525 0.187387 0.247276 0.248841 -0.0644043 0.0498612 0.208828 0.0902653 0.109494 -0.104766 0.225714 -0.0853678 0.032124 0.507458 0.564751 0.391747 -0.193302 0.0783093 -0.0538731 -0.0779806 -0.485694 -0.299039 -0.0395353 0.232021 0.0183741 0.325806 -0.288214 0.103156 0.0989293 -0.0560497 -0.025165 0.165985 -0.253644 -0.0779341 -0.165819 0.193891 -0.0262114 0.0899962 0.215683 -0.332617 0.33581 0.271427 0.584697 0.507507 0.224917 0.0225827 -0.654866 0.35071 0.00449414 0.38126 -0.728784 -0.0937716 0.00583735 0.274264 -0.121027 0.294623 0.236613 0.326562 -0.633044 -0.707727 0.313816 0.0957744 0.0561839 0.143315 -0.0767811 0.049872 -0.118422 -0.0670524 0.148098 0.0922263 -0.16828 -0.0820745 0.0154182 -0.316602 -0.270764 0.01024 0.104273 -0.321994 -0.326634 0.0590463 -0.124834 0.307884 0.0280519 -0.278948 0.361234 0.377612 -0.151181 -0.0255155 0.0931706 0.0396542 0.203636 -0.0265742 0.145744 -0.162578 0.078398 -0.160495 0.146543
19 0.0871301 0.234181 -0.0947071 -0.0760886 -0.301576 0.163536 -0.0511338 -0.231934 -0.0703772 0.0932226 0.0731823 -0.0460291 0.13832 -0.192142 0.0179842 -0.041063 -0.0092927 0.0995475 -0.0846452 -0.105979 -0.27437 0.125308 0.26031 -0.289305 0.213149 0.00388403 -0.0594895 -0.195957 -0.136511 -0.255041 -0.00947807 0.29859 -0.0335521 -0.17739 -0.150465 -0.171545 -0.196276 0.116239 0.249362 0.00449162 -0.0162728 0.108005 -0.280045 -0.116394 0.171891 0.244126 0.137377 -0.0908064 -0.0527958 -0.213689 -0.191862 -0.0773868 0.0679919 -0.0288141 0.385109 0.0553332 -0.0574503 -0.249877 0.0128277 0.245512 0.00498759 -0.273375 0.261752 -0.300569 0.244581 -0.0429453 -0.332693 -0.0791319 -0.222901 -0.34826 -0.330676 0.144727 -0.00923176 0.388782 0.0256475 0.281035 0.24015 0.0401869 0.280628 0.216294 0.349902 -0.13443 0.186856 -0.0210174 -0.00567194 0.114749 0.245525 0.179501 -0.00347201 0.0137841 -0.142292 0.432156 0.119591 0.129139 -0.0275055 -0.112999 -0.150168 -0.0230822 0.149555 0.247083 -0.172373 -0.0190743 -0.114685 -0.217096 -0.156692 -0.117243 -0.225435 0.049087 -0.45566 -0.264028 0.275863 -0.0643266 0.0719663 0.258096 -0.603446 0.00561679 0.431853 0.0566677 0.520002 0.449412 -0.113612 -0.139189 -0.161184 -0.021758 -0.324113 -0.226821 -0.0417895 0.0647597
15 0.0608175 0.140767 -0.00141813 0.0385273 -0.229924 0.0842792 0.0487573 -0.28324 0.151307 0.0178891 0.0562558 0.0539005 0.102453 -0.227669 0.016536 -0.123653 0.0498802 -0.00874971 -0.0938929 -0.170952 -0.156681 -0.0453161 0.26566 -0.180758 0.119782 -0.0614137 -0.0815585 -0.0151248 -0.156344 -0.197699 -0.122648 0.236094 0.0146666 -0.2522 -0.1984 -0.216346 -0.249261 -0.0126218 0.219565 0.011987 -0.0716153 0.114788 -0.239561 -0.0784442 0.0566548 0.200891 0.0950805 0.121281 -0.0641428 -0.090771 -0.0594103 0.0733388 0.0352833 -0.0759482 0.410179 0.0730979 -0.222591 -0.153662 -0.0200353 0.29824 0.134928 -0.217359 0.225195 -0.354374 0.281401 -0.104772 -0.435438 -0.00815597 -0.2169 -0.455857 -0.25796 0.104461 -0.0214964 0.286834 -0.107704 0.223735 0.342048 0.143444 0.163166 0.19693 0.216347 -0.161834 0.266646 0.072974 -0.07632 0.115256 0.245928 0.373848 0.143734 -0.0708481 -0.0550947 0.554586 0.194705 0.283182 0.0496025 -0.243151 -0.351769 -0.157908 0.112428 0.283843 -0.0383277 -0.110228 -0.193695 -0.232236 -0.199609 -0.0638808 -0.330032 0.0741139 -0.416337 -0.287989 0.248338 -0.0455732 -0.0645655 0.371409 -0.480181 0.0209466 0.220563 0.140353 0.601508 0.407999 -0.0268533 -0.133701 -0.0737355 0.0409107 -0.264693 -0.166484 0.0917044 0.110465
17 -0.05681 0.192089 -0.0917619 -0.0856849 0.0806926 -0.0965474 0.0422765 -0.20969 -0.379408 0.0973161 0.0554211 -0.192742 0.00743406 -0.428911 -0.247058 0.00278973 0.183838 -0.122546 0.0805935 0.0194737 -0.32941 0.267243 0.105088 -0.229162 0.133328 -0.00536051 -0.208181 -0.188383 0.0159079 -0.0548997 -0.0364166 0.303265 -0.0795271 0.149214 0.212449 -0.105666 -0.118427 0.294948 0.0999847 0.151263 0.0500195 0.223344 -0.178689 0.0444259 0.272722 0.404317 0.208488 -0.128251 -0.00173228 -0.217909 -0.245607 -0.260182 -0.112646 0.124363 0.297407 0.125197 0.136851 -0.260916 -0.0598587 0.251386 0.0187672 -0.184826 0.156883 -0.263168 0.0127223 -0.196 0.109426 0.0150249 -0.112645 -0.0337083 -0.199465 0.126022 0.0817131 0.195284 0.155514 -0.0151963 -0.0549591 -0.270871 0.159698 0.0550705 0.238413 -0.355018 0.0171523 0.0154992 0.0926604 -0.314938 0.0923961 0.0433371 0.080213 -0.260839 -0.488328 0.305053 0.0459753 0.0497248 0.0642486 -0.018379 0.0438299 0.019444 -0.0203485 0.0332552 0.130006 -0.132498 0.0487397 -0.166558 -0.235897 -0.174607 -0.16792 0.0606737 -0.350997 -0.458137 -0.0240921 -0.140487 0.150036 0.0510898 -0.0308352 0.217328 0.218 -0.152617 -0.103022 0.0735132 -0.0132184 0.0677427 -0.0542311 0.118975 -0.117434 -0.186835 -0.18493 -0.0405916
