35 24
8 0.118947 0.0115566 0.17038 -0.0427312 -0.0582563 0.17704 -0.121751 -0.101363 0.0840584 0.0233382 -0.00495273 -0.066572 -0.0807031 -0.0511995 -0.160118 -0.0557651 -0.12064 0.0347513 0.0860857 0.113402 -0.0668617 -0.0117763 -0.00167025 0.0414904
0 0.413358 -0.0253449 0.648117 -0.158958 -0.225951 0.642511 -0.558545 -0.378568 0.367838 0.0527376 0.0522228 -0.276052 -0.400306 -0.280719 -0.562293 -0.275254 -0.448003 0.161317 0.250854 0.360617 -0.175733 0.043839 0.010377 0.108536
24 0.0959565 -0.00748697 0.150077 -0.0460109 -0.0574141 0.164684 -0.145206 -0.0918497 0.0492995 0.026819 0.000909779 -0.0530157 -0.0844664 -0.0408044 -0.116677 -0.0510233 -0.115293 0.0339205 0.0384144 0.0967733 -0.0222449 0.00698876 0.0228543 0.0169967
26 0.117928 -0.0299779 0.287184 -0.0668332 -0.0975112 0.295627 -0.214978 -0.139006 0.110095 0.0362877 0.00930762 -0.110894 -0.16779 -0.106583 -0.201951 -0.0838555 -0.155375 0.0493395 0.0917201 0.11728 -0.0428179 0.0095603 0.0181627 0.049319
32 0.210492 -0.0269387 0.376019 -0.103568 -0.144015 0.400048 -0.309797 -0.233032 0.184148 0.0190237 0.0207759 -0.118901 -0.224329 -0.13172 -0.298942 -0.115841 -0.22863 0.0792035 0.150131 0.194566 -0.0764207 0.0199491 0.0259204 0.0460807
5 0.0726876 0.00878614 0.150215 -0.0239939 -0.0317104 0.147181 -0.103859 -0.0949495 0.0622109 0.018549 0.0118674 -0.0527971 -0.0878049 -0.0312997 -0.122763 -0.0262234 -0.084414 0.00925851 0.0486123 0.0881301 -0.0363007 0.0182295 -0.0117973 0.0054165
11 0.098142 0.00750466 0.182097 -0.0275925 -0.0593766 0.174662 -0.117622 -0.0988937 0.0899922 0.0185472 0.0019109 -0.0909265 -0.118452 -0.0526772 -0.151581 -0.0554015 -0.11983 0.0280502 0.0703484 0.0885612 -0.0524591 0.0191643 0.00370216 0.0377737
27 0.0669557 -0.00355869 0.144273 -0.0527809 -0.0579692 0.11876 -0.107888 -0.0815976 0.0434697 0.0107044 0.0247682 -0.0654676 -0.0854248 -0.0398348 -0.100165 -0.0649923 -0.0686936 0.0244514 0.0307845 0.073638 -0.0471696 -0.0099186 -0.00733778 0.0212839
34 0.409867 -0.0402608 0.63757 -0.178174 -0.215166 0.673893 -0.494027 -0.346898 0.366314 0.0812553 0.0653644 -0.255046 -0.389361 -0.243655 -0.578325 -0.224293 -0.421472 0.157386 0.26198 0.376569 -0.220972 -0.0164087 0.0552008 0.183183
12 0.0427329 -0.011462 0.0780363 -0.0347101 -0.031618 0.0528913 -0.026396 -0.0498597 0.0448877 0.00515578 -0.0018151 -0.0449939 -0.0263193 -0.0153767 -0.0508971 -0.033773 -0.0549128 -0.000318146 0.0228869 0.0433418 -0.0339232 0.00323771 -0.014071 0.0182955
28 0.0797013 -0.0231618 0.114635 -0.015386 -0.0431869 0.114719 -0.105886 -0.0769633 0.0546555 -0.00143438 0.0267875 -0.0611881 -0.0623212 -0.03473 -0.116412 -0.0469874 -0.08971 0.0139599 0.054301 0.0555678 -0.0397026 -0.00700309 0.00724302 0.0285325
15 0.0635056 0.00332796 0.123964 -0.044004 -0.0471534 0.136754 -0.107769 -0.0568234 0.0293294 0.0194793 0.00242147 -0.0427178 -0.0523179 -0.0233603 -0.0952407 -0.0305979 -0.0623338 0.0435218 0.0319879 0.0548051 -0.0196982 0.0109058 -0.00393601 0.030302
33 0.245962 -0.0510136 0.513719 -0.12997 -0.210704 0.482909 -0.45752 -0.299971 0.241251 0.0274585 0.0373239 -0.170976 -0.25718 -0.196578 -0.363138 -0.188263 -0.320821 0.136559 0.170129 0.270088 -0.0862947 0.00736999 0.0345257 0.0548533
14 0.112286 -0.012721 0.191944 -0.0379584 -0.0859052 0.220621 -0.147213 -0.106616 0.0824577 0.025531 0.00672393 -0.0749347 -0.0915777 -0.0919624 -0.132947 -0.050148 -0.114429 0.0271393 0.0735144 0.0939301 -0.0560501 0.0229004 0.0137695 0.0149704
23 0.0280407 0.00875203 0.065563 -0.00528527 -0.0373522 0.0887338 -0.0692577 -0.0293119 0.0499992 0.00775846 -0.01408 -0.0164848 -0.053258 -0.0181916 -0.0472385 -0.0387351 -0.0385936 0.0368352 0.0158394 0.061768 -0.0168318 -0.00437657 0.0005417 0.0216465
9 0.0716663 -0.000743907 0.156218 -0.018863 -0.0483074 0.141727 -0.0971186 -0.0649113 0.0568612 0.0230879 0.0167915 -0.0691977 -0.0693805 -0.0699063 -0.0919994 -0.0362833 -0.0821156 0.0504948 0.0278097 0.0694654 -0.021136 -0.00425107 0.00314027 0.0438963
19 0.019699 0.00534746 0.0884439 -0.00774919 -0.0245967 0.086731 -0.0479487 -0.0334427 0.0258971 -0.00226271 0.02613 -0.0320537 -0.0433144 -0.0337618 -0.0758679 -0.0278388 -0.0357567 0.0218924 0.0413929 0.0280184 -0.0270589 -0.0125202 -0.00263388 -0.0088657
21 0.0359935 0.00515828 0.0843798 -0.0319058 -0.0345594 0.0709504 -0.0843852 -0.0353921 0.0449449 0.00628934 -0.00567762 -0.0347139 -0.0530895 -0.0331078 -0.081639 -0.0484632 -0.056396 0.0254517 0.0454157 0.0571912 -0.0214015 0.0195467 -0.0111147 0.00340027
7 0.108468 -0.0235252 0.190167 -0.0428432 -0.0702886 0.204791 -0.1574 -0.112999 0.0690458 0.0180378 0.00561076 -0.0535201 -0.120963 -0.06034 -0.141818 -0.0754123 -0.11501 0.0449745 0.0604494 0.116347 -0.0390616 -0.0122457 0.0290511 0.0315622
17 0.130792 -0.0169222 0.235971 -0.0474316 -0.0850914 0.224267 -0.176437 -0.152704 0.13194 0.04518 0.00382862 -0.0984689 -0.129833 -0.09495 -0.229675 -0.090041 -0.164439 0.0372863 0.109188 0.148621 -0.0885197 0.00986087 0.0285113 0.0711025
30 0.0713547 -0.0195912 0.17375 -0.0478923 -0.0777311 0.176459 -0.142162 -0.0926034 0.055808 -0.00373828 0.0190742 -0.0678709 -0.0830271 -0.0541142 -0.111199 -0.0506722 -0.103861 0.0243821 0.0517994 0.0967771 -0.0173839 0.0204399 -0.00682065 0.0178343
25 0.1012 -0.0112908 0.182377 -0.0554762 -0.0511169 0.182195 -0.135983 -0.0863102 0.0740075 0.0287203 0.0107861 -0.0816619 -0.100232 -0.0595143 -0.139955 -0.0550945 -0.086283 0.0228503 0.0513408 0.0784497 -0.0475498 0.00663531 0.0262551 0.0478823
31 0.0632546 -0.0115278 0.15983 -0.0328864 -0.0456679 0.145881 -0.114335 -0.0750976 0.0605611 -0.00207562 0.0211625 -0.0529826 -0.107869 -0.0618957 -0.127804 -0.0595611 -0.0882734 0.0491374 0.0670595 0.0967456 -0.0249219 0.0204529 0.0167798 0.0155552
29 0.0610553 -0.0236958 0.111635 -0.0122139 -0.0430489 0.0891527 -0.0730972 -0.0768495 0.0464722 0.00955864 0.0196678 -0.0414937 -0.0465708 -0.050145 -0.0927333 -0.0345689 -0.0774831 0.0355462 0.0163513 0.0719025 -0.015708 -0.013021 0.0221789 -0.000886422
13 0.0484411 0.0140812 0.0893033 -0.013338 -0.0300399 0.103117 -0.0529133 -0.05201 0.0611225 0.0148114 -0.0034379 -0.0476821 -0.0540623 -0.0321806 -0.0956852 -0.0533025 -0.0620502 0.0224071 0.0304266 0.0572541 -0.0502562 -0.00658122 0.00123917 0.01237
20 0.0380009 0.0111501 0.071708 0.000827945 -0.0191356 0.0606677 -0.0690673 -0.0342003 0.0516233 0.00515997 0.00584095 -0.0338132 -0.021314 -0.0401679 -0.0779817 -0.0183202 -0.045158 0.0246461 0.039868 0.0387305 -0.0131368 0.00379219 0.0189722 0.00574684
22 0.0637214 0.0122848 0.0941975 -0.00442218 -0.0163503 0.112567 -0.0623572 -0.0402746 0.0581555 0.02138 -0.0138224 -0.02326 -0.0428745 -0.023093 -0.104924 -0.0424019 -0.0784373 0.0294764 0.0417407 0.0669454 -0.0159104 -0.00203617 -0.013239 0.029833
18 0.0223935 0.0149774 0.0590671 0.00336113 -0.0107314 0.0688089 -0.0509246 -0.0307124 0.0150091 0.0277257 0.00233884 -0.037372 -0.0271454 -0.0209123 -0.0402169 -0.0124461 -0.0610691 0.0274362 0.0390003 0.0398409 -0.0346251 -0.00948166 0.0055367 0.00747267
4 0.0896401 0.00557873 0.185318 -0.0528846 -0.0421975 0.175384 -0.1418 -0.101392 0.0677894 -0.00631507 0.0191637 -0.0708559 -0.0828436 -0.0492209 -0.112012 -0.070257 -0.120565 0.0468425 0.0511171 0.079687 -0.0386807 -0.0132886 0.0155174 0.048941
1 0.0820661 0.0044734 0.151223 -0.0264093 -0.0506276 0.160945 -0.133863 -0.107371 0.0737196 0.00327225 0.00425153 -0.0655424 -0.0772875 -0.0712148 -0.134787 -0.0554853 -0.105125 0.0571095 0.0774468 0.0697515 -0.0456046 -0.0101718 -0.0051909 0.0475099
16 0.0355144 -0.0155761 0.0612251 -0.0224216 -0.0128161 0.054373 -0.0630691 -0.0368117 0.0281261 0.0105568 -0.00639393 -0.0345967 -0.0315763 -0.0490873 -0.058171 -0.0238263 -0.0347844 0.0186218 0.0192487 0.0423311 -0.0138155 0.00154633 0.00320158 0.023479
3 0.0606583 -0.0261054 0.13175 -0.054149 -0.0612835 0.157766 -0.124911 -0.080694 0.0638854 0.0121434 0.00939311 -0.0568471 -0.0816554 -0.0585825 -0.0943096 -0.0643112 -0.0700524 0.0135982 0.0639154 0.0819225 -0.0350031 0.0224395 0.0126063 0.0259323
6 0.114629 0.00370078 0.152576 -0.0232581 -0.0671492 0.163236 -0.116852 -0.0849857 0.0782815 0.0234211 -0.00481475 -0.0427268 -0.0958873 -0.0450822 -0.136027 -0.0430074 -0.11362 0.0526915 0.0728607 0.0801992 -0.0429163 0.00807461 -0.00560012 0.0518726
10 0.0345248 0.00684733 0.0860396 -0.0267371 -0.016227 0.0581562 -0.0632731 -0.0509194 0.0317745 0.0162948 0.00512926 -0.018467 -0.0274532 -0.0169355 -0.064275 -0.0277926 -0.0465277 0.0322793 0.0157672 0.0385453 -0.0346562 0.0187347 -0.010111 0.0132143
2 0.0888687 0.00864752 0.195538 -0.0431593 -0.0630316 0.207562 -0.140082 -0.0985806 0.0750078 0.0179878 -0.000249816 -0.0850315 -0.126998 -0.088028 -0.160173 -0.073099 -0.134317 0.0505976 0.0453499 0.0861437 -0.0512437 -0.000149248 -0.0103378 0.0406122
