35 10
</s> 0.040027 0.044194 -0.038303 -0.032780 0.013666 0.030211 0.009409 0.002113 -0.036035 0.022185 
1 -0.222313 0.250579 -0.751640 -1.080584 -0.636064 -0.064309 -0.036971 0.128687 -0.082442 -0.895053 
34 0.229930 -0.973773 -0.512618 0.099102 -0.272554 1.336082 -0.117193 0.055665 -0.238776 -0.762472 
33 -0.014992 -0.088497 -0.106488 -0.382253 -0.665821 1.338525 0.428778 -0.250669 -0.006219 -0.505305 
3 -0.544256 -0.887098 -0.354015 -0.266238 -0.519409 -0.027928 -0.526528 -0.170550 0.076151 -0.699384 
4 -0.959069 -0.183763 -0.572605 -0.784636 -0.525005 -0.034122 0.223600 -0.038177 0.199615 -1.027633 
32 0.378543 -0.234430 -0.552336 -0.473632 -0.107556 0.523402 0.009072 -0.713441 -0.885275 -0.831538 
11 0.416110 -0.020270 -0.389429 -1.846266 -0.738381 -0.150473 -0.588489 0.325186 0.131248 -1.433259 
30 0.145364 -0.145130 0.312373 -0.150668 -1.110932 1.902896 0.086558 -0.560066 -0.084757 -0.650889 
2 -1.028685 -0.209751 -0.370205 -0.222331 -0.624364 0.489528 0.128168 -0.187395 0.409543 -0.614199 
6 0.413508 -0.044035 -0.273927 -1.764944 -0.877799 -0.157320 -0.616372 -0.058943 -0.223809 -1.388230 
28 -0.700673 -0.798796 -0.571395 0.372952 -0.948924 0.804847 -0.588407 -0.918164 0.193887 -0.211705 
14 -0.719866 -0.612531 -0.456105 -0.202581 -0.301159 0.504868 0.330381 -0.154632 0.214834 -0.692963 
5 0.258934 -0.384344 -0.260857 -1.573911 -0.673342 -0.116649 -0.456019 0.195023 0.103276 -1.342848 
24 -0.177080 -0.268448 0.072262 0.091534 -1.341634 1.966435 -0.510077 -0.922265 -0.409043 -0.390648 
25 -0.257551 -0.001911 -0.910064 -0.076788 -0.416574 0.481188 -0.417419 -0.784806 -0.789018 -0.621087 
7 0.591477 -0.111445 -0.314112 -1.568399 -0.485421 -0.032503 -0.534938 0.051333 -0.300466 -1.177895 
13 -0.908696 -0.054640 -0.946747 -0.953665 -0.418689 -0.214893 -0.037783 -0.133841 0.100956 -1.206592 
8 -0.781980 -0.187768 -0.665672 -0.688095 -0.454113 -0.020910 -0.036273 -0.064430 0.290758 -0.912888 
26 -0.339433 -0.065664 -0.508327 0.199193 -1.093083 1.614828 -0.372343 -1.113457 -0.582666 -0.481749 
29 0.103296 -0.617632 -0.723011 -0.254544 -0.332632 0.682849 0.020984 -0.644789 -0.611356 -0.715530 
9 -0.422413 -0.868964 -0.483722 -0.682535 -0.486367 -0.082144 -0.339157 -0.128119 0.312080 -0.828502 
31 -0.577022 -0.297859 0.013904 -0.089355 -0.681937 1.305328 0.631622 -0.134715 0.255010 -0.551425 
15 -0.526600 -0.393216 -0.110016 0.066993 -0.870707 1.274886 0.266293 -0.602940 0.067377 -0.449556 
12 -0.328299 0.012244 -0.588361 -1.361866 -0.363132 -0.254832 -0.114786 0.170210 -0.037880 -1.303007 
16 -0.151900 -0.662645 -0.458718 -0.008562 -0.247453 1.271744 0.515918 -0.415318 -0.179114 -0.782249 
27 0.041758 -0.693388 -0.348895 0.095534 -0.704526 1.687169 0.051139 -0.696619 -0.376840 -0.688759 
23 -0.066840 -0.417624 -0.047882 -0.049129 -0.550723 1.530555 0.434235 -0.425465 -0.150759 -0.610341 
10 -0.526895 -1.080526 -0.409424 -0.063952 -0.497539 0.496860 -0.187178 -0.300179 0.461435 -0.655386 
18 -0.836834 -0.426661 -0.695722 -0.700872 -0.621881 -0.125745 -0.338925 -0.294882 0.151781 -0.916628 
21 -0.293622 -0.230963 0.008826 -0.081464 -0.831017 1.650991 0.419670 -0.521010 -0.005292 -0.570157 
17 0.283813 -0.098269 -0.468309 -1.552391 -0.642800 -0.123908 -0.526520 -0.119780 -0.182681 -1.288574 
22 -0.681178 -0.123745 -0.316203 -0.641181 -0.584738 0.210056 0.044836 -0.061273 0.276354 -0.820247 
20 -0.253598 -0.526487 -0.341179 -0.255015 -0.331380 0.521825 0.001080 -0.134887 0.154171 -0.657024 
19 -0.321331 -0.373861 -0.173574 -0.079672 -0.605588 1.279367 0.431502 -0.347524 0.061655 -0.720059 
