34 128
1 -0.171564 0.320529 -0.257173 -0.100327 -0.0758087 0.0935814 -0.258149 0.158903 0.035535 -0.018073 -0.0857297 -0.148109 0.0411404 -0.0133533 0.134495 0.355325 -0.111862 0.32166 -0.0966138 0.18379 -0.215514 -0.0137565 0.0437318 -0.104132 -0.333754 -0.0243091 -0.00032649 -0.190551 -0.0480049 0.140469 0.0525215 -0.0124953 -0.160454 -0.241201 -0.215733 0.134924 -0.198238 -0.00284382 -0.138488 0.0972862 0.0318941 -0.0358784 -0.287707 0.143343 -0.00133038 0.106408 0.00114157 -0.209242 0.348586 0.281113 0.0619945 -0.159229 -0.0930302 -0.376723 -0.334495 -0.133609 -0.094983 -0.109308 0.0917267 -0.139344 -0.205253 0.0553279 -0.0246113 -0.0127921 -0.0618947 -0.365977 0.0720054 -0.0088237 -0.020357 0.0676102 -0.353589 -0.0585889 0.129129 -0.300894 0.210019 0.0688803 0.450249 0.129183 -0.0567642 -0.218242 -0.169922 -0.16849 0.207924 0.131897 -0.289886 -0.0707414 -0.108555 -0.217062 0.135499 0.125652 0.04292 -0.00392751 -0.0510162 0.183564 -0.138943 -0.179261 0.00941518 0.231515 -0.115083 -0.00415694 -0.108444 -0.0270953 0.0817733 -0.0492619 0.197818 0.0271851 0.145738 0.270486 -0.327517 -0.640859 0.254517 -0.164439 -0.115823 0.145022 -0.152095 0.0327692 0.255824 0.0670672 0.154522 -0.0506513 -0.157671 -0.192323 0.0210765 0.14317 -0.166874 0.0474167 0.238923 -0.376957
32 -0.124125 0.0568556 -0.265743 -0.11131 -0.00523205 0.149691 -0.134801 0.0103851 0.0269204 0.11345 -0.0722717 -0.193167 0.0630927 -0.174757 0.169743 0.0891942 0.0208374 0.322613 -0.137864 -0.0329862 -0.127949 0.140911 0.00510879 -0.327841 -0.246712 0.00164917 -0.00914312 -0.199854 0.226822 0.281061 -0.102586 -0.124185 -0.115274 -0.144561 -0.202588 0.0654336 0.0118382 -0.150582 -0.150455 -0.0223754 0.159373 -0.130252 -0.054792 -0.0519918 0.303135 0.0771664 -0.0277644 -0.027774 0.163616 0.194432 0.113624 -0.0229203 -0.0370458 -0.376176 -0.0421263 -0.127892 -0.0270072 -0.124471 -0.0567601 -0.0773022 -0.17771 -0.00175335 0.0738933 0.0791108 -0.0795357 -0.0517827 0.0799885 0.168021 -0.00112861 0.0513489 -0.256333 -0.246075 0.0688408 -0.161913 0.174215 0.00543418 0.24697 0.229716 -0.191705 -0.0177488 0.00862082 -0.120403 0.249055 -0.0385665 -0.00148358 0.0985213 -0.247253 -0.0501333 0.0720598 0.0465183 -0.0190236 -0.0681256 0.217974 0.0158578 -0.241766 -0.0424738 0.0331759 0.0718216 -0.107938 -0.0722284 -0.111743 0.152846 0.0331068 0.0370695 0.293862 -0.216776 0.241866 0.0358294 -0.0303524 -0.404778 0.306392 -0.241683 -0.0576077 0.049273 -0.147597 -0.0199684 0.279813 0.0047931 0.0548029 0.18316 -0.132526 -0.126556 -0.0851932 -0.0232069 -0.260221 -0.0791515 0.280987 -0.254756
22 -0.178335 0.420435 -0.186264 0.0187505 -0.125228 0.0554778 -0.310043 0.159182 -0.0626423 -0.091208 -0.101769 -0.126856 0.0387451 0.0606987 0.161868 0.368421 -0.203981 0.33125 0.0240409 0.277196 -0.0817017 -0.104836 0.094976 0.0247527 -0.286124 0.0462696 -0.0116501 -0.220303 -0.101267 0.0416864 0.0560691 0.0515041 -0.221819 -0.164404 -0.205322 0.0765556 -0.188582 0.172842 -0.156221 0.0975874 -0.0567919 -0.0400746 -0.25656 0.198634 -0.0798344 0.0239533 -0.117494 -0.225028 0.250938 0.27643 -0.0489989 -0.125157 -0.0937427 -0.310501 -0.34268 -0.171748 -0.0578394 0.00314267 0.0985147 -0.101276 -0.318725 0.0281659 -0.0637372 0.0325582 0.0339667 -0.346917 0.0492052 -0.107474 0.0309944 -0.0453757 -0.287284 -0.0675739 0.132178 -0.274576 0.134021 0.0932631 0.425907 0.109619 0.0181703 -0.239043 -0.318867 -0.0756186 0.22329 0.113666 -0.276489 -0.0867593 0.0288989 -0.253697 0.144021 0.184471 0.0421854 0.0607794 -0.13195 0.109365 -0.211246 -0.102874 0.0108259 0.238497 -0.108015 0.016199 -0.218491 -0.0587959 0.0920598 0.0206999 0.182991 -0.0150289 0.0879843 0.325464 -0.3513 -0.600944 0.133559 -0.152616 -0.137163 0.100949 -0.197121 0.0497641 0.236644 0.0374381 0.0694151 -0.199402 -0.0919058 -0.117454 0.0765645 0.156698 -0.121924 0.098936 0.126775 -0.290715
20 -0.186454 0.292261 -0.207622 0.0465628 -0.0896491 0.12644 -0.173188 0.0537216 0.0106865 -0.0711299 -0.117872 -0.16486 -0.0197061 -0.00965542 0.181061 0.215351 -0.0893853 0.280255 0.0573305 0.144359 -0.162598 0.103139 0.0354903 -0.078341 -0.307527 0.0675924 -0.1338 -0.187075 0.098288 0.219591 -0.0017366 0.0122285 -0.0874926 -0.160358 -0.163132 -0.0798121 -0.124067 0.0417621 -0.216843 0.0574616 -0.0961089 -0.104929 -0.184869 0.0621847 0.014348 0.116412 -0.211686 -0.132107 0.187416 0.244458 0.0268747 -0.0643456 -0.180797 -0.266723 -0.119696 -0.157022 -0.00569059 0.0174723 -0.049014 -0.068164 -0.423646 -0.059117 0.00945706 0.0253121 0.00304723 -0.274629 0.0504788 -0.0115045 0.0702259 -0.0809297 -0.277087 -0.194901 0.0981915 -0.138032 0.0835154 0.0217063 0.315763 0.177794 -0.0523531 -0.202658 -0.224775 0.0118869 0.214423 0.119312 -0.211713 -0.00832931 0.014092 -0.278806 0.17133 0.0529904 0.0161049 0.0642034 -0.116852 0.0107201 -0.335528 0.023115 0.121064 0.123477 -0.122087 -0.0696184 -0.262112 0.0262904 0.0321662 0.13813 0.217208 -0.0811664 0.11232 0.156247 -0.0615546 -0.581922 0.23409 -0.172411 0.000266705 0.0804682 -0.153734 0.070697 0.223175 0.0732788 -0.0302737 -0.162196 -0.03907 -0.108404 0.150227 0.108993 -0.240216 0.0459078 0.171991 -0.169728
18 -0.199765 0.407097 -0.207394 0.0618517 -0.126958 0.0550281 -0.321325 0.108303 -0.0759168 -0.0983064 -0.109067 -0.120328 0.0520447 0.101801 0.188495 0.344326 -0.216447 0.359819 0.0166124 0.273186 -0.0670306 -0.0783074 0.0301894 0.0340392 -0.318732 0.0279792 -0.027477 -0.246601 -0.0461907 0.0827641 0.0378602 0.0654626 -0.220865 -0.216352 -0.185019 0.0539125 -0.165882 0.202177 -0.192516 0.140608 -0.0824644 -0.115402 -0.22191 0.146909 -0.0821424 0.028447 -0.180808 -0.167885 0.226032 0.266726 -0.0424937 -0.0986551 -0.103894 -0.356596 -0.334437 -0.198206 -0.0326332 0.0258479 0.0580068 -0.124936 -0.400875 0.0491912 -0.0453225 0.0532536 0.0285003 -0.351957 0.0148827 -0.126985 0.0719647 -0.0673421 -0.281005 -0.084535 0.125209 -0.204393 0.113466 0.0713813 0.415367 0.166377 -0.0103463 -0.256374 -0.304983 -0.0559085 0.231999 0.119294 -0.263362 -0.100255 0.00655242 -0.27166 0.170539 0.212328 0.0299815 0.0554925 -0.139544 0.0660438 -0.285722 -0.0567318 0.0517447 0.219419 -0.13452 -0.0609696 -0.283088 -0.0472892 0.077487 0.0731706 0.220162 -0.0393181 0.0785602 0.346789 -0.325101 -0.649212 0.148084 -0.192806 -0.1141 0.118276 -0.197776 0.0615459 0.271703 0.0554831 0.0431056 -0.219572 -0.0439594 -0.135472 0.103119 0.0874803 -0.179051 0.0795156 0.13087 -0.273163
14 -0.180996 0.226003 -0.231713 -0.00914565 -0.0921762 0.0961613 -0.192686 0.0452144 0.0591529 -0.0442486 -0.0326391 -0.160321 0.0564372 0.032032 0.14386 0.315292 -0.0519256 0.234771 -0.13867 0.124668 -0.221325 0.101334 -0.140673 -0.0709892 -0.392047 -0.0807931 -0.121817 -0.167856 0.13178 0.250909 0.0428638 0.0131531 0.00137914 -0.303645 -0.119094 0.0115541 -0.156364 -0.0202459 -0.157627 0.143984 -0.0390165 -0.112948 -0.154638 0.0449533 -0.0303652 0.165757 -0.0731529 -0.0327688 0.266192 0.147089 0.139539 -0.0554732 -0.137169 -0.328091 -0.307995 -0.141731 -0.0521745 -0.0505621 -0.037416 -0.17727 -0.345255 0.0789282 0.0263561 -0.075481 -0.0899179 -0.298266 -0.021435 -0.0705596 0.0846519 0.106176 -0.253814 0.00787242 0.0336101 -0.0256266 0.0597867 0.0435523 0.311422 0.185208 -0.0220765 -0.248302 -0.0422265 -0.138004 0.113716 0.170703 -0.286519 -0.142445 -0.156519 -0.227424 0.17842 0.0636552 0.0240882 0.0105222 -0.0990417 0.128791 -0.236682 -0.0671812 0.128153 0.148035 -0.137082 -0.102769 -0.208327 -0.0540937 0.0260197 0.0757081 0.190802 0.00491295 0.02473 0.264848 -0.201965 -0.606781 0.298185 -0.171811 -0.0356926 0.238041 -0.101145 0.0701349 0.182669 0.132472 0.096288 -0.0447587 -0.00913612 -0.242231 0.0581815 -0.0357364 -0.217405 -0.0273224 0.29507 -0.200093
13 -0.187627 0.226741 -0.268374 0.01814 -0.0623855 0.0157527 -0.230551 0.00505911 -0.01184 -0.0321413 -0.0435464 0.0665683 0.0808073 0.340324 0.0867679 0.24493 -0.132865 0.263016 -0.0990062 0.269602 -0.165229 -0.0695402 -0.2048 0.0812324 -0.280745 -0.178543 0.064918 -0.162896 -0.0951929 0.0750109 0.077703 0.0842114 -0.179173 -0.426046 -0.0335724 0.205786 -0.123735 0.158622 -0.164058 0.340434 -0.000171611 -0.261492 -0.28492 0.0481335 -0.124398 0.0302365 -0.0210222 -0.0891845 0.284404 0.195873 0.0213306 -0.149766 -0.0428681 -0.440217 -0.411609 -0.0947306 -0.0957896 -0.127496 0.0633178 -0.153336 -0.228381 0.241818 -0.0410588 -0.00412721 -0.0742626 -0.434351 -0.0421086 -0.0778598 0.0385038 0.00598802 -0.234826 0.0630042 0.163294 -0.126388 0.199311 -0.0808015 0.345351 0.128539 -0.110276 -0.167209 -0.0615468 -0.194716 0.150682 0.267776 -0.239799 -0.0979074 -0.160238 -0.160677 0.122276 0.202799 0.0328099 -0.0550907 -0.107492 0.0899067 -0.143547 -0.11182 0.020477 0.207216 -0.182234 -0.252887 -0.102317 -0.0919265 0.0402712 0.0282153 0.132492 0.199327 0.0451142 0.352631 -0.444378 -0.575657 0.187266 -0.223334 -0.0835722 0.097355 -0.0569653 0.10448 0.259802 0.106572 0.102292 -0.117913 0.028946 -0.22509 0.0648458 -0.0707026 -0.162022 0.00825297 0.0771239 -0.400081
12 -0.156644 0.202894 -0.244001 0.00771135 -0.101224 0.0150906 -0.322969 0.0564972 -0.0442932 -0.00895039 -0.124336 -0.0205776 0.0599885 0.125383 0.0998305 0.21375 -0.171614 0.431469 -0.0769029 0.147234 -0.0285937 -0.107536 -0.0241537 -0.0138893 -0.237385 -0.0535071 0.070459 -0.25064 -0.053544 0.0428247 -0.0137824 0.07351 -0.274163 -0.290378 -0.131298 0.152961 -0.082391 0.212478 -0.177057 0.218483 0.0205588 -0.17887 -0.161199 0.0878139 0.00325784 0.00151327 -0.169362 -0.0848365 0.183675 0.22098 -0.0742049 -0.163841 0.00443982 -0.477557 -0.325024 -0.142283 0.000918806 -0.0180048 0.099588 -0.116216 -0.228427 0.0881896 -0.0209112 0.156363 0.068313 -0.333709 -0.0178431 -0.0593314 -0.0265242 -0.0643917 -0.283438 -0.133677 0.126417 -0.167564 0.183166 -0.0480955 0.40151 0.136933 -0.100667 -0.156249 -0.227754 -0.0168862 0.261876 0.0580275 -0.108274 -0.0251876 -0.121147 -0.102864 0.152135 0.271424 -0.0439827 -0.0726045 -0.0329369 -0.00581766 -0.173272 -0.000492916 -0.0225191 0.214147 -0.19456 -0.172911 -0.193393 -0.00521117 0.0832064 -0.00210708 0.176381 -0.0107505 0.0676009 0.329188 -0.294401 -0.537617 0.063045 -0.192109 -0.125929 0.038515 -0.147657 0.0760387 0.352614 0.0125294 0.106435 -0.116218 -0.0308966 -0.208006 0.0425971 0.0043808 -0.216141 0.0822304 0.0960078 -0.320162
11 -0.213901 0.265972 -0.339468 0.00932913 -0.124395 0.0680015 -0.416368 0.0728845 -0.0777366 0.00412654 -0.194302 -0.0697711 0.0556666 0.0811711 0.165357 0.236745 -0.211343 0.617799 -0.0450963 0.164534 -0.0213335 -0.100257 0.0459318 -0.116378 -0.290591 -0.00779416 0.0708727 -0.355673 -0.0126966 0.0819779 -0.0698105 0.0574188 -0.397706 -0.298753 -0.224351 0.155129 -0.0691929 0.234204 -0.25374 0.207747 0.0571289 -0.238612 -0.198198 0.0973085 0.109189 -0.0135652 -0.266883 -0.133484 0.20255 0.331411 -0.12614 -0.194625 -0.00809664 -0.634802 -0.326909 -0.196148 0.0221502 -0.0125354 0.106664 -0.115407 -0.336059 0.0476938 -0.00727375 0.266035 0.109297 -0.366335 0.0291759 -0.00202975 -0.0478232 -0.139287 -0.379519 -0.307215 0.194563 -0.267164 0.250845 -0.0606598 0.524121 0.222849 -0.163724 -0.163134 -0.348509 0.0181436 0.419344 0.0323059 -0.0528323 0.0499974 -0.147858 -0.127348 0.191564 0.327201 -0.0691041 -0.0785555 0.0156857 -0.0548418 -0.308483 0.0327668 -0.0353815 0.25005 -0.245478 -0.199354 -0.289916 0.0611261 0.10757 0.032354 0.295892 -0.13082 0.172431 0.356001 -0.303713 -0.700837 0.106889 -0.277833 -0.159552 -0.0152109 -0.239292 0.0747676 0.502574 -0.0337743 0.101825 -0.125569 -0.0678733 -0.211615 0.0517694 0.0452569 -0.322546 0.102799 0.126455 -0.413526
9 -0.12945 0.0843047 -0.266218 -0.129575 0.0236151 0.0669238 -0.183252 0.0202287 -0.0173307 0.0504895 -0.0771198 -0.171658 0.129049 -0.115434 0.172861 0.176793 -0.0518146 0.271053 -0.250117 -0.00762339 -0.0678841 0.00827198 -0.123404 -0.193752 -0.315441 -0.11916 0.085331 -0.213602 0.126817 0.229711 -0.0104133 -0.0799735 -0.107122 -0.25726 -0.14806 0.191013 -0.0514954 -0.135956 -0.0935358 0.056171 0.140284 -0.195695 -0.0235528 -0.139848 0.100991 0.115679 0.0274372 0.0642664 0.223431 0.104198 0.162854 0.0482199 0.0262785 -0.363634 -0.152512 -0.178745 0.00162106 -0.10203 -0.0299438 -0.190753 -0.101632 0.173851 0.0850724 0.0214879 -0.227681 -0.115058 0.0316869 -0.0539836 0.120571 0.167981 -0.243033 -0.0252087 -0.0305044 -0.0462358 0.130172 0.112882 0.266816 0.319149 -0.224293 -0.170302 0.070354 -0.215057 0.0937703 -0.0718461 -0.132352 -0.141892 -0.301943 -0.123781 0.0825534 0.194533 -0.00591117 -0.0310105 0.152769 0.11947 -0.193204 -0.172459 0.0709718 0.0456208 -0.0639875 -0.126011 -0.160333 0.114362 -0.0153286 -0.037639 0.303607 -0.129403 0.168641 0.163174 -0.174496 -0.485321 0.293398 -0.212754 -0.0604335 0.282634 -0.110233 -0.0864025 0.264981 0.0332395 0.136471 0.0939685 -0.139742 -0.153208 -0.0493512 -0.161992 -0.227435 -0.0744724 0.261054 -0.273767
8 -0.178431 0.257776 -0.250445 -0.00379401 -0.0902862 0.0714304 -0.264133 0.0737182 -0.0318278 -0.0606583 -0.0580633 -0.0971777 0.0802616 0.115132 0.145346 0.347048 -0.1041 0.291896 -0.105377 0.209695 -0.128635 -0.033311 -0.1035 -0.0422732 -0.316161 -0.0944769 -0.0377756 -0.204596 0.0313329 0.0878477 0.0447237 0.0405185 -0.139843 -0.263128 -0.134559 0.108967 -0.135485 0.0544307 -0.125739 0.16671 0.0169785 -0.134446 -0.186833 0.0805136 -0.0321285 0.0554949 -0.0525393 -0.0699255 0.235112 0.147258 0.0191552 -0.0652062 -0.0551951 -0.37307 -0.379324 -0.13476 -0.0602428 -0.0401952 0.0478377 -0.176157 -0.274873 0.130298 -0.00174426 -0.00623709 -0.0575495 -0.272999 -0.00266487 -0.0974678 0.0477652 0.0719071 -0.194764 0.0153241 0.0819272 -0.0869864 0.087055 0.064058 0.339823 0.18689 -0.0126926 -0.221751 -0.123636 -0.160917 0.162705 0.165131 -0.185067 -0.140286 -0.158862 -0.160289 0.144782 0.145389 0.0104048 0.0213447 -0.0683901 0.1411 -0.215225 -0.101898 0.0408039 0.177032 -0.1219 -0.0960477 -0.211592 -0.0668123 0.0348159 0.0299438 0.202697 -0.0137739 0.0531986 0.318997 -0.367418 -0.568123 0.226254 -0.172082 -0.12263 0.17292 -0.154042 0.043225 0.225591 0.0410358 0.129804 -0.0578459 -0.00791819 -0.18766 0.0127593 -0.0370252 -0.160117 -0.0130965 0.19881 -0.259551
7 -0.199738 0.252488 -0.319046 0.0253052 -0.121695 0.0284234 -0.433124 0.0799367 -0.119837 -0.0435194 -0.185996 -0.032232 0.0770801 0.141582 0.150685 0.28271 -0.218286 0.571341 -0.0602638 0.186594 0.0344382 -0.172981 -0.00922693 -0.050673 -0.257415 -0.0631461 0.0790292 -0.350311 -0.0444141 -0.0264252 -0.0404715 0.0928291 -0.399195 -0.284041 -0.185564 0.186596 -0.0679898 0.249103 -0.194072 0.231037 0.0573152 -0.236504 -0.165904 0.0915189 0.0368048 -0.0436607 -0.244765 -0.0835289 0.166387 0.23271 -0.16958 -0.149478 0.0411143 -0.596207 -0.392009 -0.181242 0.035662 0.0304034 0.13518 -0.154222 -0.290396 0.106457 -0.0117472 0.250733 0.0942944 -0.321866 -0.000782225 -0.0965538 -0.0286594 -0.0966863 -0.279473 -0.199058 0.151124 -0.16774 0.180565 -0.015168 0.475638 0.2321 -0.106426 -0.202051 -0.341523 -0.00289623 0.354709 0.043234 -0.0160404 -0.0402016 -0.163836 -0.0932164 0.181236 0.355976 -0.084894 -0.0387912 -0.0227512 -0.0109398 -0.278299 0.0123282 -0.0477579 0.228596 -0.212174 -0.197388 -0.314452 0.0162304 0.0784335 0.00705899 0.267293 -0.119562 0.102456 0.403996 -0.391518 -0.641201 0.0623618 -0.229438 -0.191216 0.030814 -0.241774 0.0557113 0.455092 -0.0735997 0.141984 -0.140394 -0.0168208 -0.196359 0.0373453 -0.0206937 -0.262176 0.0899801 0.0876998 -0.352185
6 -0.199038 0.28724 -0.306507 0.0124024 -0.144087 0.0500115 -0.454094 0.109646 -0.10266 -0.0188301 -0.191276 -0.0933447 0.0691463 0.0419944 0.16909 0.286056 -0.229794 0.620199 -0.0481532 0.165608 0.027889 -0.145644 0.0790254 -0.102187 -0.274245 0.00992393 0.0639046 -0.369868 -0.0177015 0.024025 -0.0705038 0.0634289 -0.409466 -0.241664 -0.243958 0.150252 -0.0772361 0.2552 -0.219635 0.169908 0.0567225 -0.181712 -0.163647 0.137947 0.100793 -0.0338899 -0.270111 -0.132743 0.175261 0.297767 -0.157274 -0.177496 0.0184274 -0.609056 -0.366152 -0.203068 0.0293368 0.027305 0.135345 -0.126303 -0.322087 0.0294413 -0.0173263 0.271299 0.13764 -0.3209 0.0204423 -0.0434645 -0.0518301 -0.120706 -0.346864 -0.281249 0.166117 -0.2501 0.208934 -0.0110404 0.519887 0.20947 -0.101701 -0.185435 -0.388876 0.0309119 0.411654 -0.00602579 -0.0378042 0.0140563 -0.134009 -0.109832 0.190536 0.341176 -0.08048 -0.0560576 0.00828104 -0.0307194 -0.289107 0.0290961 -0.0546601 0.258714 -0.223571 -0.136862 -0.313925 0.043729 0.116624 0.0106529 0.287062 -0.174241 0.137087 0.387003 -0.335833 -0.664461 0.0643185 -0.2464 -0.196122 0.00426193 -0.271603 0.0601103 0.476808 -0.0665654 0.127493 -0.126493 -0.066412 -0.201046 0.0224872 0.0536452 -0.283447 0.108346 0.132625 -0.363745
5 -0.221929 0.296249 -0.343186 0.0254226 -0.118995 0.0375857 -0.468123 0.0838755 -0.14458 -0.0344181 -0.212038 -0.0624058 0.0911011 0.114462 0.185823 0.284982 -0.25673 0.633536 -0.0541891 0.202464 0.0605444 -0.189224 0.0245295 -0.0704569 -0.286921 -0.0371866 0.108375 -0.391977 -0.0487188 0.00300473 -0.0540789 0.0831803 -0.449313 -0.29023 -0.225134 0.207146 -0.0701523 0.270167 -0.224069 0.221377 0.0668845 -0.26686 -0.169921 0.0832133 0.0603944 -0.0527582 -0.272702 -0.104043 0.180712 0.288126 -0.168559 -0.147544 0.0441508 -0.643337 -0.383279 -0.225002 0.0414347 0.0298265 0.133865 -0.154846 -0.325127 0.107948 -0.00815396 0.280258 0.0839817 -0.338382 0.0164812 -0.0926996 -0.00428512 -0.118054 -0.329565 -0.247354 0.164983 -0.219221 0.214832 0.00220717 0.527486 0.273658 -0.149346 -0.209359 -0.378612 -0.00831961 0.397486 0.00630294 -0.0346883 -0.0307278 -0.159958 -0.127234 0.188686 0.405245 -0.080136 -0.0430157 0.00726531 -0.0287335 -0.325507 -0.001363 -0.0434863 0.241103 -0.224647 -0.204609 -0.349395 0.0495177 0.0921929 0.00995771 0.323397 -0.163264 0.152673 0.418711 -0.40007 -0.711965 0.0760441 -0.272699 -0.203857 0.040208 -0.270864 0.0383271 0.513148 -0.075726 0.127264 -0.16171 -0.0518139 -0.185324 0.0399188 -0.0116027 -0.297571 0.101234 0.0931148 -0.402965
4 -0.186785 0.304535 -0.29145 -0.0586381 0.00406614 0.08276 -0.234 0.133441 -0.0957251 -0.122305 -0.178102 -0.0642342 0.0298343 0.0998431 0.162567 0.32674 -0.122834 0.282788 0.0120288 0.243613 -0.0955469 -0.130937 0.0176608 -0.0546796 -0.227082 -0.0747502 0.0561545 -0.210496 -0.118208 -0.0566325 0.0849541 0.0272319 -0.262173 -0.155778 -0.162312 0.19263 -0.150597 -0.0363583 -0.0778007 0.093673 0.0521812 -0.151303 -0.28587 0.0232983 -0.080762 0.0296925 -0.0254233 -0.15282 0.250105 0.171218 -0.0799384 -0.0386431 -0.0194378 -0.307776 -0.247153 -0.12469 -0.0283787 -0.0340982 0.120427 -0.146869 -0.133072 0.144638 0.00357294 0.0416326 -0.144788 -0.266883 0.120919 -0.12012 0.0460391 0.0226341 -0.178268 -0.0358257 0.119415 -0.199139 0.141298 0.145438 0.364156 0.260789 -0.100068 -0.252106 -0.224183 -0.162655 0.15427 0.134897 -0.115561 -0.153337 -0.0879179 -0.210506 0.10264 0.191788 0.00292666 0.11851 -0.0748642 0.185863 -0.214634 -0.205445 -0.00331027 0.11759 -0.0285337 -0.0647868 -0.202315 0.0120131 -0.0282411 -0.0514342 0.243355 -0.02436 0.179603 0.223645 -0.406043 -0.574759 0.215681 -0.110263 -0.117645 0.139346 -0.186739 -0.0565084 0.254452 -0.0742702 0.140559 -0.147802 -0.107702 -0.0214106 0.0880393 0.0546983 -0.123751 0.0344776 0.0454072 -0.32459
3 -0.203022 0.303436 -0.28349 -0.0594785 0.0151241 0.108253 -0.165057 0.0241988 -0.0413561 0.0374828 -0.076645 -0.144345 0.0930212 0.0422143 0.23652 0.181422 -0.127658 0.2669 -0.0752727 0.210181 -0.153621 0.0373891 -0.0396934 -0.108002 -0.335352 -0.0195876 0.0833352 -0.209073 0.0252673 0.279837 0.0168578 -0.0763013 -0.174981 -0.276043 -0.180044 0.158416 -0.101388 -0.018987 -0.199754 0.108023 0.0450943 -0.226999 -0.232878 -0.0295039 0.0687245 0.0729508 0.01279 -0.144583 0.310661 0.316159 0.148096 -0.0421052 -0.0914775 -0.35925 -0.144301 -0.197453 -0.103033 -0.166368 -0.0477036 -0.109735 -0.281036 0.145404 0.00209942 -0.0176846 -0.19614 -0.290419 0.087651 0.0282449 0.137558 0.0131996 -0.337686 -0.094713 0.133834 -0.286164 0.255769 0.050861 0.352528 0.256682 -0.239408 -0.130258 -0.0422271 -0.255347 0.19336 0.0840258 -0.279319 -0.0194855 -0.131017 -0.278439 0.0660783 0.157498 0.0862495 -0.00840686 0.0855477 0.0806922 -0.279966 -0.199353 0.0841235 0.130007 -0.0961151 -0.122924 -0.122573 0.092122 0.0353543 0.0601593 0.312984 -0.0299503 0.272194 0.169421 -0.25779 -0.631364 0.358604 -0.318258 -0.0515546 0.13951 -0.13255 -0.0154843 0.290488 0.10834 -0.00319009 -0.0354768 -0.174785 -0.0876836 0.0356025 0.00816995 -0.215954 -0.0377741 0.18836 -0.42922
2 -0.177051 0.189982 -0.306049 -0.0815792 0.00872147 0.0769292 -0.190602 0.0434414 -0.0151382 0.00103572 -0.102461 -0.0420891 0.0661393 0.115192 0.136961 0.212797 -0.0815199 0.286093 -0.109751 0.164527 -0.159428 -0.0251513 -0.0944536 -0.0961613 -0.27145 -0.123048 0.0813249 -0.188708 -0.02712 0.119571 0.0374891 -0.0120231 -0.194575 -0.30267 -0.122715 0.210206 -0.100897 -0.0343268 -0.130392 0.175785 0.0882894 -0.218971 -0.241641 -0.0273735 0.0116951 0.0640125 0.0180633 -0.0913062 0.2834 0.205109 0.0512421 -0.0852519 -0.0242548 -0.405629 -0.241839 -0.116979 -0.0642428 -0.140033 0.0467912 -0.145234 -0.14015 0.179758 0.0151846 0.0262188 -0.156958 -0.30178 0.059467 -0.0109541 0.0372413 0.0508654 -0.257626 -0.0444889 0.126484 -0.18587 0.219911 0.015124 0.343683 0.227115 -0.188789 -0.155405 -0.0491403 -0.211188 0.168733 0.135599 -0.157239 -0.0673089 -0.199649 -0.159067 0.0907337 0.172561 0.0159701 -0.0200727 0.0243819 0.120406 -0.178084 -0.172552 0.0197722 0.131327 -0.108838 -0.169115 -0.103737 0.0332535 0.00722762 -0.0226382 0.232808 0.0367199 0.181508 0.211051 -0.328636 -0.563915 0.270066 -0.210931 -0.0787627 0.123285 -0.106753 -0.00191367 0.28807 0.0321444 0.118722 -0.0233078 -0.0998687 -0.13888 0.0296866 -0.0298525 -0.193245 -0.017863 0.134905 -0.395987
31 -0.12662 0.294037 -0.123611 -0.0883314 -0.00650095 0.120082 -0.0945196 0.0934992 0.0252254 0.0161306 -0.0762368 -0.336755 0.0366953 -0.323264 0.229945 0.165875 -0.0943671 0.163557 -0.0551991 0.0188705 -0.122501 0.123631 0.131517 -0.165795 -0.338708 0.143253 -0.0387166 -0.153149 0.118388 0.371924 0.00264223 -0.132509 0.00452193 -0.0572821 -0.239405 -0.0387349 -0.139294 -0.130272 -0.151404 -0.149702 -0.0451746 0.0111043 -0.0691858 -0.0108511 0.079834 0.183007 -0.0497901 -0.125355 0.243039 0.265034 0.229142 0.0397701 -0.155817 -0.102323 0.0596685 -0.221568 -0.0213586 -0.041163 -0.108882 -0.069342 -0.280312 -0.0721551 0.0343344 -0.0692462 -0.165031 -0.137232 0.116188 -0.00578098 0.170299 0.0588597 -0.353894 -0.135861 -0.0259554 -0.228014 0.107197 0.18689 0.27512 0.218667 -0.139216 -0.189164 -0.0816456 -0.102464 0.0964055 -0.122089 -0.348808 -0.0594431 0.00702658 -0.346644 0.0818446 0.0511735 0.0872142 0.0645658 0.053529 0.0843257 -0.252736 -0.150593 0.162849 0.0499845 0.00142608 0.101601 -0.163803 0.141842 0.0374055 0.04647 0.279015 -0.173586 0.215399 0.0327186 0.0795912 -0.508342 0.310192 -0.179512 0.0271564 0.248226 -0.134285 -0.0724312 0.149052 0.124947 -0.0409584 -0.0495161 -0.260538 -0.0345021 0.0661166 0.12744 -0.189958 0.0146227 0.289729 -0.17153
10 -0.174048 -0.00131178 -0.391986 -0.19185 0.0784857 0.142598 -0.109295 0.0745918 0.100063 -0.0881514 -0.211519 -0.109345 -0.0275521 -0.0839265 0.0858012 0.251611 0.0936415 0.248942 -0.172031 -0.0714618 -0.293296 0.0901473 -0.158022 -0.26063 -0.327375 -0.226289 -0.0670083 -0.162226 0.104427 0.129247 0.0661111 -0.0257095 -0.0444876 -0.263744 -0.10276 0.141177 -0.138232 -0.389809 -0.0443303 0.0790468 0.122495 -0.18831 -0.186346 -0.19571 -0.0126522 0.258434 -0.0149802 0.0578157 0.291473 0.0180138 0.0826945 0.000239367 -0.0452431 -0.351667 -0.118158 -0.0546181 0.0652775 -0.0735666 0.0405403 -0.242313 -0.0153531 0.128898 0.149388 0.00338219 -0.292527 -0.220217 0.113761 -0.0686031 0.0151143 0.210179 -0.195448 -0.0517099 -0.0173848 0.0729948 0.0783203 0.106011 0.299237 0.385851 -0.196138 -0.318228 0.0218068 -0.142884 0.0440325 0.122688 -0.0498893 -0.221934 -0.321141 -0.160247 0.176652 0.0706841 -0.093914 0.0796245 -0.0542424 0.241425 -0.193529 -0.170233 0.103967 -0.0266008 -0.0416957 -0.184005 -0.191611 0.0868128 -0.137026 -0.102049 0.257612 -0.0288209 0.141131 0.0853483 -0.13195 -0.612262 0.378623 -0.0298466 0.0203238 0.305899 -0.0817159 -0.08149 0.254981 -0.0566423 0.27073 0.0181628 -0.0871655 -0.16073 0.119144 -0.0861008 -0.288211 -0.0412404 0.224758 -0.217482
33 -0.16589 0.13149 -0.313398 -0.122199 0.00791204 0.190411 -0.125988 0.078263 0.0511446 0.00610224 -0.136887 -0.196804 -0.0122874 -0.149081 0.161155 0.205077 0.0459341 0.303065 -0.0531857 0.0191631 -0.231506 0.150608 0.0367812 -0.31878 -0.274161 -0.0117557 -0.0972586 -0.187562 0.172491 0.208855 -0.0373924 -0.0902025 -0.104396 -0.11223 -0.213803 0.0271674 -0.0764779 -0.242322 -0.125469 -0.033071 0.110756 -0.0892576 -0.180522 -0.020875 0.200066 0.135976 -0.0475119 -0.0927662 0.225401 0.187733 0.0589439 -0.0445236 -0.10038 -0.330575 -0.0665154 -0.091741 -0.0240558 -0.0884712 -0.00687067 -0.105736 -0.193604 -0.0316864 0.0781522 0.0393656 -0.113243 -0.131892 0.137141 0.122365 -0.0255241 0.0619319 -0.238064 -0.232553 0.0901137 -0.159715 0.13883 0.0611289 0.301448 0.255805 -0.131193 -0.137507 -0.084499 -0.107559 0.22693 0.0798505 -0.030066 0.0246536 -0.187208 -0.13632 0.120075 -0.0113998 -0.0314944 0.0345146 0.0708762 0.115411 -0.267071 -0.0837616 0.054537 0.0647584 -0.0750329 -0.0383075 -0.154354 0.110131 -0.0122142 0.0127785 0.286993 -0.171883 0.238105 0.0339791 -0.0781111 -0.524343 0.357401 -0.150361 -0.0422199 0.0784955 -0.170556 -0.0227626 0.255332 -0.0328803 0.107433 0.0860264 -0.130538 -0.0948309 0.0156062 0.0713213 -0.257706 -0.0463727 0.261752 -0.236587
29 -0.0904065 -0.0706418 -0.297711 -0.233533 -0.00496183 0.145063 -0.0945793 0.0963928 0.22389 0.0713351 -0.110465 -0.146592 -0.0439418 -0.225404 0.00580629 0.167148 0.137479 0.282627 -0.219668 -0.177612 -0.342472 0.195359 -0.025491 -0.359841 -0.273186 -0.108058 -0.0934974 -0.101756 0.158164 0.233372 -0.0245671 -0.0786657 0.0122496 -0.225807 -0.154446 0.0660004 -0.106252 -0.316598 -0.079908 0.0187257 0.151152 -0.0014372 -0.150976 -0.0310179 0.173699 0.247762 0.0171454 -0.0326249 0.281963 0.119909 0.136365 -0.153136 -0.0733621 -0.378468 -0.120113 -0.00581847 0.00321285 -0.143999 0.0394585 -0.134238 0.0151501 -0.0459234 0.104647 0.0207426 -0.0915004 -0.21332 0.0793871 0.155845 -0.156373 0.173102 -0.31758 -0.173915 0.0324001 -0.0975477 0.169354 -0.0360615 0.311357 0.146641 -0.132636 -0.135922 0.041795 -0.0608302 0.158832 0.0662134 -0.0571506 0.0178096 -0.29896 -0.024319 0.149398 -0.0440675 -0.0736097 -0.0847985 0.0457247 0.156519 -0.0408911 -0.0669416 0.0200716 0.0856653 -0.122312 -0.0694794 -0.0101281 0.0743847 0.0023416 -0.116094 0.145245 -0.0180195 0.126828 0.0311569 0.0245067 -0.452234 0.297978 -0.0437487 0.00487594 0.125823 -0.0486361 0.0160406 0.233703 0.0156289 0.248989 0.181052 -0.134421 -0.2747 -0.00990151 0.0697783 -0.271207 -0.00989543 0.33586 -0.233254
28 -0.176068 0.11071 -0.3821 -0.159897 -0.020144 0.209482 -0.169457 0.094837 0.0616473 -0.0022047 -0.0703876 -0.177538 0.0509643 -0.0539282 0.157045 0.372339 0.109571 0.2886 -0.177201 0.0867306 -0.309084 0.136298 -0.103866 -0.358125 -0.331325 -0.147403 -0.128071 -0.182681 0.219799 0.159597 0.000364181 -0.0817994 -0.0728565 -0.19781 -0.198568 0.115787 -0.0993482 -0.316856 -0.0724316 0.0365561 0.202527 -0.0922604 -0.22132 0.00915407 0.197879 0.130625 0.0906731 -0.0488432 0.284913 0.0924584 0.0832448 -0.0274847 -0.0651938 -0.423639 -0.299943 -0.0548881 -0.0897408 -0.151887 0.0348111 -0.196293 -0.145678 0.0910749 0.0851854 -0.046021 -0.165876 -0.120285 0.101387 0.095967 -0.0549693 0.215201 -0.16025 -0.0703594 0.0845665 -0.0870276 0.105708 0.0942694 0.305067 0.271619 -0.0523875 -0.164137 0.0250693 -0.266067 0.195747 0.211094 -0.0156935 -0.0705863 -0.358178 -0.0498425 0.127515 -0.0473193 -0.0237895 0.0373533 0.0801662 0.264068 -0.226075 -0.162628 0.0131247 0.113807 -0.0825561 -0.0456412 -0.135507 0.00746 -0.027925 -0.0232906 0.282237 -0.120098 0.185056 0.137547 -0.313344 -0.54996 0.45533 -0.147694 -0.12502 0.15986 -0.181925 -0.0129072 0.221219 -0.0414515 0.235486 0.2181 -0.0625626 -0.188816 -0.0976405 -0.0353316 -0.216553 -0.139875 0.355714 -0.278598
17 -0.222574 0.288967 -0.346643 0.0361247 -0.122727 0.0384255 -0.47035 0.0846388 -0.140179 -0.0528189 -0.240402 -0.0575583 0.0714245 0.114185 0.179687 0.270043 -0.262245 0.645805 -0.0364805 0.178466 0.0626373 -0.184458 0.0284637 -0.0540298 -0.285228 -0.0301186 0.0953768 -0.398931 -0.0508464 -0.000559293 -0.0567553 0.0954862 -0.450096 -0.294204 -0.216809 0.180003 -0.075382 0.282648 -0.23797 0.226716 0.035886 -0.278606 -0.168845 0.0730704 0.0364781 -0.0368967 -0.323587 -0.0905881 0.169963 0.287145 -0.186967 -0.156184 0.0360331 -0.641882 -0.350965 -0.222795 0.0743697 0.0584008 0.129428 -0.149233 -0.342217 0.0868704 -0.00320177 0.306638 0.0983409 -0.360471 0.0185464 -0.109173 -0.00899258 -0.148489 -0.340509 -0.279913 0.160673 -0.195051 0.202288 -0.0138231 0.533835 0.284021 -0.157313 -0.231922 -0.412061 0.0470445 0.399703 -0.00286406 -0.0280629 -0.0337954 -0.139069 -0.145253 0.209814 0.416315 -0.101125 -0.0328812 -0.0249065 -0.0521058 -0.339216 0.0369766 -0.0308524 0.226876 -0.229597 -0.226244 -0.380461 0.0587941 0.0838659 0.0194946 0.32101 -0.161701 0.138827 0.412948 -0.354583 -0.725741 0.0569628 -0.256815 -0.181445 0.0386027 -0.270843 0.0459422 0.528553 -0.0777094 0.120298 -0.205607 -0.0398006 -0.190061 0.085649 -0.00111227 -0.317923 0.125238 0.0745238 -0.376483
34 -0.081274 0.156318 -0.195227 -0.196893 -0.0228828 0.106029 -0.192565 0.12744 0.0261101 0.127005 -0.00698722 -0.267277 0.116598 -0.284541 0.159148 0.236413 -0.0326147 0.272781 -0.230958 -0.000181045 -0.110554 0.041971 0.0845843 -0.293715 -0.273179 0.0192021 0.0530262 -0.178163 0.120662 0.240477 -0.0475033 -0.154451 -0.0996786 -0.100709 -0.266071 0.147957 -0.0788923 -0.157739 -0.0659461 -0.0912391 0.184622 0.0357251 -0.0643195 0.0608483 0.247766 0.0802303 0.127571 -0.0991613 0.257481 0.206863 0.175895 -0.0404832 -0.000974981 -0.306069 -0.176413 -0.144412 -0.0928449 -0.155636 0.0233903 -0.119013 -0.057094 0.0222008 0.0282239 -0.00851558 -0.112595 -0.0561057 0.0887932 0.104849 -0.0101391 0.181881 -0.295613 -0.0882835 0.0242265 -0.274623 0.184954 0.136751 0.310113 0.152947 -0.107117 -0.0673515 0.0177812 -0.234283 0.179494 -0.106084 -0.155327 -0.00501507 -0.234243 -0.0656138 0.0362489 0.0759801 0.03957 -0.0667463 0.234211 0.167101 -0.0834271 -0.208247 -0.016797 0.144775 -0.044916 0.108654 -0.0222496 0.0909418 0.0910462 -0.0924674 0.260659 -0.183493 0.222263 0.117626 -0.170148 -0.39303 0.28587 -0.193542 -0.140793 0.166755 -0.158478 -0.0704091 0.208195 0.03222 0.151713 0.226253 -0.249966 -0.145404 -0.183884 0.0501468 -0.141322 -0.0603882 0.362203 -0.29835
15 -0.092069 0.0927321 -0.181297 -0.194538 0.0858778 0.0669308 -0.0918533 0.0631175 0.0514163 0.0879441 -0.139699 -0.249419 0.0388478 -0.3567 0.147441 0.0226192 -0.0804544 0.231625 -0.177309 -0.150497 -0.083534 0.0635755 0.0802618 -0.212342 -0.287298 0.0317723 0.115422 -0.165287 0.0512099 0.343858 -0.0217875 -0.143094 -0.0669271 -0.148962 -0.196179 0.113746 -0.0878164 -0.196941 -0.111853 -0.0904376 0.063287 -0.0900755 -0.012288 -0.166373 0.100535 0.202929 -0.0214544 -0.0198712 0.252941 0.226162 0.229761 0.00201255 -0.0345359 -0.210343 0.134365 -0.193419 0.0534677 -0.0948389 -0.0595431 -0.107342 -0.0417264 0.0133633 0.0885636 0.0458503 -0.240612 -0.147998 0.118222 0.00620286 0.121657 0.0998205 -0.40093 -0.166331 -0.0537229 -0.189626 0.197523 0.125241 0.294541 0.278888 -0.317793 -0.169088 0.0141371 -0.0921777 0.0716175 -0.241941 -0.242655 -0.0654583 -0.132522 -0.248829 0.0644164 0.182463 0.011411 -0.0383219 0.157204 0.0574232 -0.133989 -0.184816 0.118774 -0.0115304 -0.0159833 -0.0303092 -0.0862754 0.236263 0.00365481 -0.0867274 0.289386 -0.140316 0.255031 -0.00114951 0.129923 -0.473724 0.248793 -0.167336 0.0520974 0.268981 -0.0611904 -0.130994 0.263358 0.0718785 0.0626668 0.00759675 -0.321798 -0.0724995 0.0604599 0.0325198 -0.259198 0.0320317 0.237544 -0.256614
16 -0.103855 0.103198 -0.207246 -0.211909 0.0911462 0.0894488 -0.0815235 0.0600098 0.0624659 0.101977 -0.111303 -0.257333 0.0557036 -0.339344 0.167045 0.0535774 -0.0515871 0.215111 -0.199432 -0.120643 -0.126934 0.0925062 0.0482368 -0.239531 -0.313796 0.0122232 0.10786 -0.159191 0.0814996 0.371386 -0.0164672 -0.164314 -0.0476333 -0.16958 -0.202077 0.124861 -0.0921437 -0.240125 -0.108887 -0.0844607 0.0887117 -0.0959925 -0.0427368 -0.156888 0.128512 0.208289 0.0342233 -0.0355773 0.288628 0.231169 0.261485 0.002805 -0.0436266 -0.228427 0.099113 -0.186322 0.00903663 -0.136111 -0.0674337 -0.116805 -0.0445968 0.037142 0.0848534 0.00510942 -0.268832 -0.144999 0.126432 0.0402261 0.120873 0.136983 -0.396289 -0.13744 -0.0391675 -0.211444 0.215564 0.123462 0.293564 0.281433 -0.3154 -0.152964 0.0590033 -0.161227 0.0741755 -0.193416 -0.257572 -0.0604805 -0.167608 -0.245083 0.052025 0.143088 0.0330314 -0.0420874 0.181481 0.0930798 -0.137049 -0.219414 0.113335 0.00409348 -0.0181822 -0.0253365 -0.0583419 0.220092 0.00449618 -0.0844893 0.301942 -0.132261 0.277822 -0.000469661 0.0795945 -0.491647 0.310644 -0.188822 0.0342753 0.271933 -0.066272 -0.123051 0.251325 0.0869639 0.0745773 0.0609101 -0.323482 -0.0856087 0.0216021 0.0235999 -0.251209 -0.00298298 0.281674 -0.293966
19 -0.113703 0.0716504 -0.2449 -0.230811 0.0790667 0.132664 -0.0912801 0.0506663 0.0872641 0.150356 -0.115511 -0.311778 0.0576468 -0.415088 0.189856 0.0317444 -0.021116 0.28616 -0.221542 -0.170351 -0.153718 0.164301 0.0726353 -0.348101 -0.336586 0.0429062 0.0738722 -0.19416 0.17915 0.448042 -0.0712071 -0.202721 -0.0554918 -0.15872 -0.247582 0.09875 -0.0611937 -0.279929 -0.145904 -0.119289 0.134261 -0.0943249 -0.0183717 -0.160674 0.252075 0.217108 0.0117566 -0.0310578 0.284669 0.266621 0.286622 -0.00538522 -0.0595718 -0.297253 0.133045 -0.195658 0.0121134 -0.156053 -0.0950332 -0.105912 -0.0877584 -0.013994 0.109725 0.0355963 -0.246713 -0.109999 0.13572 0.123499 0.0885892 0.130411 -0.436565 -0.240895 -0.0271836 -0.236184 0.244097 0.103304 0.314954 0.301135 -0.342222 -0.111526 0.0680013 -0.146059 0.151152 -0.224362 -0.210017 0.0150572 -0.217006 -0.214821 0.062445 0.113697 0.0156565 -0.0748368 0.254135 0.0629716 -0.188565 -0.178414 0.118582 0.0117763 -0.0453881 -0.0252392 -0.0677678 0.26833 0.0206515 -0.0593699 0.352192 -0.212034 0.326523 -0.0378772 0.143533 -0.519015 0.362358 -0.237698 0.031386 0.236483 -0.098855 -0.115773 0.300705 0.0816054 0.0657169 0.141511 -0.34195 -0.113686 -0.0188359 0.0270394 -0.311087 -0.0267236 0.351584 -0.307766
21 -0.102089 0.0910481 -0.211826 -0.216596 0.0840698 0.116782 -0.0821616 0.0622898 0.0579089 0.116278 -0.114262 -0.297512 0.0544144 -0.395271 0.179857 0.0530903 -0.0257009 0.238036 -0.192578 -0.144979 -0.120801 0.122786 0.0824378 -0.305997 -0.302816 0.0402439 0.0768064 -0.172352 0.136734 0.383073 -0.0499608 -0.185825 -0.0487207 -0.118791 -0.231814 0.0993975 -0.0701639 -0.273241 -0.108593 -0.134276 0.115957 -0.0699188 -0.0169215 -0.149099 0.203973 0.199908 0.0231968 -0.0359839 0.257466 0.227389 0.254855 0.0234093 -0.0446184 -0.230112 0.126183 -0.188395 0.0127238 -0.131396 -0.0780838 -0.106009 -0.0607095 -0.00342936 0.099778 0.0214096 -0.246629 -0.0851553 0.140984 0.0770413 0.103396 0.13467 -0.382272 -0.189989 -0.0373007 -0.214596 0.204363 0.137533 0.280711 0.293943 -0.304535 -0.128129 0.0520461 -0.148773 0.108533 -0.217855 -0.200146 -0.023812 -0.183068 -0.217033 0.0493356 0.11009 0.0203865 -0.0375455 0.224079 0.0823632 -0.167402 -0.19317 0.108834 -0.0017212 -0.0103088 0.00729402 -0.0753968 0.244674 0.0102173 -0.0686733 0.324865 -0.204439 0.303214 -0.0379168 0.112432 -0.468613 0.333364 -0.197848 0.0239848 0.245789 -0.0957021 -0.135603 0.254289 0.0612664 0.0680868 0.109126 -0.326117 -0.0709613 -0.0107882 0.0326229 -0.262195 -0.0209911 0.311065 -0.26602
23 -0.0910538 0.0528548 -0.205722 -0.220435 0.0932774 0.101149 -0.0585502 0.0432422 0.0855664 0.130927 -0.112145 -0.267288 0.0433167 -0.386004 0.152991 0.00358124 -0.0232738 0.228714 -0.204147 -0.17659 -0.134267 0.129692 0.0650366 -0.287563 -0.296151 0.0276737 0.0961894 -0.157195 0.123179 0.401909 -0.0452713 -0.183222 -0.036247 -0.155722 -0.207318 0.106413 -0.0623309 -0.263041 -0.113806 -0.105755 0.107623 -0.0880493 -0.0148476 -0.171181 0.186168 0.216369 0.0203581 -0.0190969 0.267137 0.235145 0.269003 0.000986923 -0.0462269 -0.236388 0.149987 -0.179206 0.0235427 -0.144413 -0.0855858 -0.0958296 -0.0336518 -0.00153382 0.101024 0.0256366 -0.253584 -0.114687 0.127066 0.0855952 0.0973878 0.126794 -0.404494 -0.191546 -0.0418381 -0.206624 0.224846 0.0974209 0.277239 0.274123 -0.33365 -0.117709 0.0792803 -0.128546 0.0951141 -0.224334 -0.212435 -0.0112784 -0.183304 -0.210323 0.0514282 0.118628 0.0192587 -0.066862 0.218015 0.061726 -0.136684 -0.180494 0.114423 -0.00895725 -0.0275537 -0.0297962 -0.0448097 0.253926 0.0113383 -0.0792917 0.298966 -0.15875 0.291597 -0.0491272 0.154076 -0.454468 0.311802 -0.192429 0.0509644 0.241996 -0.0588773 -0.123251 0.258378 0.0805911 0.063693 0.102169 -0.328065 -0.0909135 0.0119291 0.0241352 -0.273024 -0.010855 0.295868 -0.277563
24 -0.0928777 0.0355411 -0.251667 -0.209202 0.0274276 0.0941911 -0.152944 0.0898694 0.0864437 0.0913291 -0.122537 -0.191796 0.0343252 -0.274874 0.0989242 0.118382 -0.0073235 0.313172 -0.207889 -0.124686 -0.149761 0.0669331 0.0451724 -0.288176 -0.266433 -0.0348114 0.0600988 -0.175365 0.0858255 0.243437 -0.0426398 -0.112554 -0.100879 -0.175305 -0.200349 0.137953 -0.0776869 -0.206339 -0.0914751 -0.030587 0.146198 -0.0603904 -0.0740293 -0.0711336 0.171596 0.166413 0.0072895 -0.0384877 0.252096 0.186302 0.144958 -0.0759075 -0.0094577 -0.34656 -0.0481082 -0.117658 0.0140714 -0.117749 0.0216225 -0.124751 -0.00571997 0.0111486 0.0831349 0.0712363 -0.141585 -0.15533 0.0964864 0.0776504 -0.0262691 0.126211 -0.348563 -0.176568 0.00704735 -0.1856 0.204045 0.0591221 0.326584 0.220425 -0.225912 -0.129373 -0.00660183 -0.102331 0.157547 -0.1165 -0.109895 -0.014272 -0.237248 -0.10062 0.0929104 0.123184 -0.0337868 -0.0753742 0.149633 0.102868 -0.0940716 -0.139316 0.0258686 0.068383 -0.0751619 -0.0378675 -0.0596305 0.155058 0.0271443 -0.114671 0.243955 -0.123704 0.213852 0.0595335 -0.0085613 -0.457499 0.247394 -0.13869 -0.0312462 0.174874 -0.0949441 -0.0690917 0.284685 0.0110089 0.167718 0.11927 -0.236445 -0.166441 -0.0301055 0.0341566 -0.249616 0.00883378 0.276685 -0.284517
30 -0.139434 0.154211 -0.258441 -0.134401 0.0436859 0.1683 -0.112424 0.0348068 -0.0312448 0.0904572 -0.0521092 -0.285341 0.101136 -0.240587 0.25173 0.153606 -0.00351132 0.245225 -0.138054 0.0228366 -0.107536 0.130351 0.0258131 -0.332457 -0.289954 0.026349 0.00445588 -0.206908 0.233184 0.318702 -0.0699942 -0.181969 -0.0943821 -0.0767227 -0.246618 0.0781638 -0.0168497 -0.236814 -0.115837 -0.107882 0.161669 -0.115828 -0.0483555 -0.0787861 0.290932 0.0855099 0.0533625 -0.0389114 0.202805 0.196628 0.18312 0.0751573 -0.0467991 -0.274264 -0.00358946 -0.176732 -0.0625852 -0.135419 -0.0906093 -0.108664 -0.193225 0.0376437 0.078014 -0.00208663 -0.20754 0.018499 0.13025 0.118598 0.103747 0.121552 -0.226709 -0.172174 0.0297591 -0.184367 0.146124 0.145667 0.230373 0.307214 -0.199808 -0.064957 0.0450979 -0.240873 0.184161 -0.0767896 -0.0801041 0.0106348 -0.226125 -0.142216 0.0345254 0.0390426 0.0331784 0.0104665 0.257453 0.100723 -0.289005 -0.1688 0.075404 0.0309987 -0.0238581 0.0144616 -0.129845 0.178289 0.00889786 0.0336498 0.37662 -0.282174 0.310503 0.0116381 -0.0806021 -0.444102 0.404943 -0.263767 -0.0706866 0.156786 -0.181853 -0.100944 0.229786 0.0103971 0.0348707 0.18841 -0.206639 -0.034703 -0.104742 -0.0352217 -0.218479 -0.125799 0.320776 -0.254183
26 -0.0936828 0.0311109 -0.281187 -0.179066 -0.0737069 0.218934 -0.149181 0.0725025 0.112531 0.203324 0.00934379 -0.240431 0.0615321 -0.255942 0.137125 0.167831 0.123315 0.364253 -0.188811 -0.0459097 -0.250893 0.238487 0.0798918 -0.494828 -0.239274 0.0359873 -0.0948268 -0.171206 0.321505 0.310797 -0.15914 -0.179253 -0.0840502 -0.0969221 -0.283903 0.0367054 0.0146017 -0.219366 -0.140238 -0.0812785 0.259335 0.027152 -0.105652 0.109233 0.495643 0.0649217 0.0778821 -0.121779 0.200508 0.234914 0.128077 -0.123888 -0.0610282 -0.446571 -0.15771 -0.054234 -0.12574 -0.211542 -0.0122901 -0.0423518 -0.149018 -0.102298 0.0490986 0.0516987 0.0378806 -0.0080641 0.0917158 0.368204 -0.174887 0.102476 -0.27855 -0.305074 0.139103 -0.292048 0.222071 -0.0472779 0.281841 0.0907434 -0.0787944 0.094316 0.0351086 -0.161001 0.364565 0.0330053 0.0538159 0.241916 -0.322135 0.0899043 0.0635237 -0.112258 -0.00646118 -0.140623 0.299792 0.0760482 -0.16073 -0.03154 -0.0582994 0.179381 -0.147572 0.0507147 0.0127045 0.0983334 0.117112 0.00937075 0.254616 -0.239435 0.261333 0.0169445 -0.0734457 -0.341135 0.364237 -0.244991 -0.140424 -0.0727373 -0.181557 0.0420745 0.255993 0.0022403 0.124913 0.403838 -0.147968 -0.216381 -0.248963 0.0906746 -0.234739 -0.125338 0.434008 -0.295559
25 -0.0826427 0.0107214 -0.290691 -0.233811 -0.0876658 0.204812 -0.17789 0.129551 0.180981 0.167921 -0.0243084 -0.237369 0.0236362 -0.302455 0.0749366 0.235913 0.138454 0.386845 -0.232272 -0.101454 -0.311861 0.219872 0.0856403 -0.494043 -0.270277 -0.00209029 -0.118349 -0.155778 0.270805 0.273201 -0.119623 -0.148551 -0.0541801 -0.131211 -0.280971 0.0508681 -0.050545 -0.257819 -0.111156 -0.0689679 0.246484 0.0884502 -0.139432 0.131078 0.418497 0.132863 0.0696628 -0.124919 0.25947 0.214255 0.123559 -0.177653 -0.0626233 -0.467532 -0.219475 -0.028504 -0.092655 -0.197729 0.0479914 -0.0822802 -0.0747613 -0.121443 0.0604089 0.0479537 0.0417793 -0.0893441 0.0907395 0.32202 -0.234446 0.157844 -0.331244 -0.273087 0.108438 -0.269773 0.216201 -0.0377384 0.347641 0.0691755 -0.0483868 0.00682058 0.00780581 -0.121408 0.333539 0.0451278 0.00893432 0.178341 -0.336468 0.0853015 0.112794 -0.106694 -0.0349895 -0.137224 0.212334 0.139603 -0.0784919 -0.0448712 -0.0692601 0.203566 -0.154734 0.0647802 0.0220848 0.0670844 0.109885 -0.0734187 0.201152 -0.173034 0.202393 0.0552824 -0.0689472 -0.3993 0.339398 -0.157223 -0.128562 -0.0121894 -0.160506 0.048168 0.255177 -0.00209773 0.223117 0.367336 -0.162064 -0.290348 -0.207064 0.137181 -0.246316 -0.0699896 0.461645 -0.292423
27 -0.168074 0.0961918 -0.323612 -0.191249 0.0947501 0.183213 -0.0626047 0.045057 0.0716453 0.045742 -0.154455 -0.277285 0.0174778 -0.285993 0.206325 0.121911 0.0404863 0.252922 -0.143996 -0.0839988 -0.233041 0.18948 -0.00340859 -0.351059 -0.356688 -0.0219718 -0.0249306 -0.190975 0.201262 0.373755 -0.0269764 -0.165235 -0.0376493 -0.160551 -0.217688 0.0642547 -0.0796725 -0.362129 -0.129512 -0.0856445 0.113091 -0.151989 -0.111924 -0.181534 0.190303 0.231842 -0.00637601 -0.0237399 0.286544 0.202266 0.221516 0.0340351 -0.0995167 -0.288363 0.0906008 -0.159348 0.00809232 -0.129606 -0.0933506 -0.139946 -0.150033 0.020784 0.129715 -0.00454386 -0.294973 -0.123714 0.164091 0.0842289 0.101769 0.140187 -0.326071 -0.205462 0.00134258 -0.140357 0.172276 0.122116 0.288798 0.376536 -0.29268 -0.182815 0.0469393 -0.174858 0.129965 -0.0514851 -0.145691 -0.0485133 -0.229382 -0.244002 0.101322 0.0418741 -0.00533161 0.026528 0.150815 0.126308 -0.285186 -0.176014 0.142531 -0.0259408 -0.0323247 -0.0689542 -0.145441 0.220951 -0.0539584 -0.00971826 0.367057 -0.194287 0.310546 -0.0397484 0.0497204 -0.591364 0.451181 -0.197512 0.0386214 0.243165 -0.121325 -0.107959 0.269115 0.029034 0.0841399 0.0965449 -0.247866 -0.0789843 0.0506459 0.000269646 -0.315643 -0.0651056 0.318742 -0.267394
